5096 48
fishing -0.017242588 -0.01049378 -0.003414585 -0.007774075 0.019758755 -0.015124315 0.010233107 -0.010810959 0.00928723 -0.010341959 0.009309556 -0.0057355063 0.049990457 -0.01899707 -0.026533142 0.016218098 -0.024005977 0.05401798 -0.034030665 0.026577597 -0.019144075 -0.0020949675 0.013220057 -0.023591237 0.018058062 -0.017809013 -0.011983336 -0.005004449 0.02581123 0.008784699 0.0044342475 0.022962281 0.06106556 0.0049838405 -0.0069736913 -0.021892458 -0.0028846178 0.04424826 -0.013710123 4.320526e-05 0.0029782965 -0.014914002 -0.04472178 -0.05721575 -0.007311614 0.007181774 0.020415686 0.036213085
commercial -0.012745477 -0.01835783 0.00630738 -0.015392415 -0.0043138713 -0.0060355617 -0.0077654524 -0.004699709 -0.0101890545 -0.016802393 -0.006331277 0.007359414 0.034885377 -0.016226424 -0.030097289 0.018418606 -0.010520684 0.032040894 -0.029778142 0.030928623 -0.030554235 0.011774158 0.02685915 -0.035106163 0.028782437 -0.020201104 -0.006367654 -0.01917712 0.0248227 0.0132063385 0.0062155365 0.01246548 0.05510669 -0.009639889 -0.010268161 -0.01893658 -0.0028119776 0.018749792 0.0060092495 0.006689674 -0.013678934 -0.02558582 -0.0358656 -0.027991202 -0.01856222 -0.0075465236 0.011657314 0.033085935
acai -0.0057011014 -0.016067158 0.004459741 0.0029235338 0.008481919 -0.036140297 0.0061807074 -0.0072259875 -0.00080714043 -0.01296606 0.02190855 -0.017061044 0.04142021 -0.010916619 0.0051245065 0.008896304 -0.013795046 0.035657465 -0.024835294 0.022260107 -0.00035773558 -0.007545015 2.7433525e-06 -0.0387144 0.0014708295 -0.026134985 -0.026479036 0.0023133098 0.021988904 0.0215874 0.018236982 0.0031947389 0.034862287 -0.02156424 -0.012938919 -0.02659784 0.017426962 0.008429657 -0.020799037 -0.015216343 0.00047603424 -0.018496724 -0.028393563 -0.035765994 -0.00809074 0.01001144 0.01219856 0.008303743
superbowl -0.0074228966 -0.018090032 0.0062267003 -0.0041001528 0.007854622 -0.013404252 -0.006259152 0.004527541 -0.009165762 -0.010942574 0.007980258 -0.006458713 0.03354358 -0.01026198 -0.029797252 0.008736894 -0.015247433 0.03503664 -0.029741649 0.022567576 -0.02487157 -0.0042726556 0.015003001 -0.012203424 0.01147062 -0.015643857 -0.0037853736 -0.008090622 0.018411187 0.011014315 0.017214775 0.004651709 0.040578414 0.0026788898 -0.013804781 -0.018379837 -0.009695261 0.014444927 -0.010939102 0.01005761 -0.0115092285 -0.022905793 -0.011937857 -0.018309757 -0.010340405 -0.005350412 0.020620381 0.021307722
berry -0.009842467 -0.019167934 0.008580975 0.015821684 -0.003301177 -0.022379486 -0.009401606 -0.019285573 0.020291267 -0.026735477 0.028378606 -0.015404721 0.05232471 0.0005778066 0.0147330165 0.016911445 -0.004065616 0.01637479 -0.02835633 0.030097872 -0.0015633911 -0.015934207 0.011921241 -0.04648696 -0.008557467 -0.03219191 -0.030762913 -0.012179559 0.021909645 0.02161935 0.010943482 0.014623206 0.023639992 -0.00909577 -0.01920113 -0.007619917 0.00873402 0.0072403736 -0.032915488 -0.002528436 -0.009813969 -0.0042775283 -0.023636108 -0.037716016 -0.020806458 -0.010153721 0.023275446 0.023847591
super -0.016260464 -0.017631177 -0.0034651805 0.0010472523 3.649261e-05 -0.016015781 0.0031229379 0.0029869296 0.006018288 0.00078922615 0.0023470647 0.009991395 0.01946523 -0.02544572 -0.026151588 -0.0076421453 0.00832401 0.020772552 -0.0303525 0.013076117 -0.024719154 0.01618109 -0.00048769912 -0.037239585 0.025618063 -0.0049407706 0.0064359396 0.0004538157 0.015103197 0.0071043465 0.01036175 0.0057165176 0.03413705 -0.009483635 -0.01012313 -0.017565774 -0.018568212 0.019791959 0.0027166307 0.010089368 -0.008311202 -0.011486253 0.00045639384 -0.016449574 -0.0065111686 -0.0123978 0.0028145064 0.025556723
news -0.00979925 -0.009306028 -0.007648091 -0.0058710426 -0.0017993686 -0.01798136 0.008936906 -0.0018097991 -0.00486391 0.00016777216 0.00089354924 0.008342621 0.039691553 -0.019580571 -0.025443222 0.009120627 -0.01594581 0.030885698 -0.027627645 0.02251966 -0.018369405 0.0021909093 0.010192101 -0.016505098 0.011275249 -0.011988821 -0.014401312 -0.0066917343 0.010853203 0.0058630677 0.0143334195 0.020334084 0.05118399 -0.011113379 -0.0044729845 -0.017407913 -0.011536315 0.0338107 0.006681516 -0.006120335 0.0039352137 -0.019151019 -0.032831684 -0.042618953 0.0031580415 0.011182962 0.021375505 0.032597516
bowl -0.006454883 0.004834408 0.00750205 0.008358875 0.0123535 -0.006784748 0.0058184136 -0.0032360926 -0.008030348 0.002997085 -0.007892188 -0.0037514945 0.014151879 -0.029771589 -0.026378028 0.0001085845 0.00847957 0.03834676 -0.033577103 0.025204755 -0.0093615195 0.013792393 0.0073464145 -0.01424177 0.034469288 -0.009541892 -0.011453457 -0.019310677 0.022556301 0.006649511 0.013676229 0.0004534104 0.03477354 -0.017644793 0.0037476418 -0.02429253 -0.018878095 0.005357552 -0.0006940868 0.011748087 0.007900247 -0.015495238 -0.011521395 -0.02447622 0.003283497 -0.01216488 0.01039031 0.033734065
king -0.0077383905 0.012550572 -0.003687398 -0.007860783 -0.011757108 -0.017212957 -0.015808811 -0.013510228 0.0043169297 -0.005741115 -0.0055560074 0.008454524 0.01661343 -0.02760476 -0.012728776 0.0151321 -0.006755056 0.051158674 -0.018812623 0.024762321 -0.03523804 -0.013818642 0.022484504 -0.0145117175 0.018546773 -0.023099557 -0.0011208482 -0.019839874 0.01833903 0.021606702 0.00542224 0.02875148 0.038860712 -0.008894044 -0.0036011192 -0.00916995 -0.0073133297 0.041479677 0.017000133 0.009493654 -0.00413452 -0.016234538 -0.0067704646 -0.040323686 -0.0107199615 0.011034684 0.0006748486 0.037511956
speech -0.015797617 0.0037014543 -0.01604246 -0.015513 0.0016496166 -0.019113917 -0.00661997 -0.018668937 -0.012448861 -0.015546949 -0.010637278 -0.013173231 0.034865875 -0.029542575 -0.024457494 0.015412301 -0.007087442 0.054982804 -0.014600765 0.014269587 -0.022197934 -0.0044322493 0.015232085 -0.009376096 0.002043432 -0.012077715 0.0023996516 -0.008413281 0.011793357 0.027207758 0.02414835 0.011087432 0.054213338 -0.014690148 -0.0036901722 -0.011472772 -0.012803191 0.023134656 0.008651543 -0.007634284 -0.0036742792 -0.02453467 -0.014487992 -0.027066907 0.004684907 0.0090666255 0.007817637 0.022516862
weight 0.015926106 -0.012302628 -0.010135514 0.004360564 0.0021488722 -0.035082925 -0.011207867 -0.005570818 0.014312476 -0.033297993 0.013775602 -0.0022362384 0.05123347 0.0108999815 -0.0052682944 0.014315634 -0.02333473 0.03761347 -0.03196434 0.012876018 0.004225067 -0.0050120153 -0.0010851333 -0.04068654 -0.01254786 -0.028917061 -0.027741054 0.004111145 0.012906558 0.009773364 0.007618112 0.0035152787 0.029579947 -0.023087442 -0.022294836 -0.026136573 0.008574387 0.010630539 -0.028825263 -0.007981968 -0.012552097 -0.0027295374 -0.008624334 -0.047261696 -0.017076477 -0.0053616166 0.022191284 0.021648502
best -0.013705655 -0.003533966 -0.012141132 -0.009977516 -0.008880144 -0.019357331 -0.0033388329 -0.0008115885 0.0063304706 -0.01598038 0.0052507333 -0.0022564009 0.03745662 -0.020860607 -0.022146827 0.011151848 0.00063998357 0.03884671 -0.010958323 0.028808888 -0.029328827 0.003122867 0.011441317 -0.027962042 0.009038318 -0.0010509373 -0.011817635 -0.014583948 0.00705578 0.012983707 0.0060201623 0.01585822 0.040765177 -0.0051434482 -0.012654026 -0.0061776848 -0.010904574 0.013740224 -0.011536617 -0.011058394 0.0021277654 -0.026325699 -0.02819363 -0.040480286 0.0040980214 0.003788762 0.016123252 0.027227946
national -0.018739639 -0.016413087 -0.017878966 -0.0040886328 -0.006084072 -0.025494518 -0.008015809 -0.01301089 -0.00013149364 0.012691692 -0.004699717 -0.0048105777 0.016186902 -0.025925243 0.0038341421 0.006739133 -0.014558405 0.017621886 -0.020379415 0.025770515 0.005358823 0.0027829614 -0.007053558 -0.035368342 0.040984847 0.00037436403 -0.009168215 0.003995475 0.007606901 0.006775142 -0.00788018 -0.0063233827 0.04086251 -0.016031027 -0.0068301046 -0.0036568367 0.0007829614 0.023956215 -0.013288216 0.019891812 0.005670822 -0.036940694 0.006802663 -0.038500324 -0.0029507075 0.0015487291 0.011735289 0.031379215
aguilera -0.022191921 -0.0056639314 -0.019992752 0.004696095 0.004605671 -0.03036711 -0.016594205 -0.011935233 -0.004879401 0.009613458 -0.0013638369 -0.008546488 0.010842512 -0.006710744 0.00025784783 0.0027645908 0.0013935342 0.016213944 -0.03849903 0.032206997 0.0064095343 0.020866567 -0.004161054 -0.03677456 0.031020662 0.0039659454 -0.0009845905 0.009394688 0.006512586 -0.013360133 -0.010245676 -0.008143791 0.040135473 -0.018017273 0.0070716464 -0.02453375 0.004094205 0.009975144 -0.0006034511 0.017480008 -0.008230717 -0.015355921 -0.003387492 -0.046099085 -0.012015842 -0.0053213155 0.011100548 0.036436122
christina -0.0050839246 0.0016562928 -0.0016870606 0.0013247577 0.001015729 -0.0145112965 0.0095372945 0.009601773 0.0074008578 0.007515752 0.0046936646 -0.0026833124 0.012417077 -0.00079896866 -0.014730466 0.0135326255 0.005132231 0.021339834 -0.025908304 0.031435464 -0.0035429099 -0.0007961411 -0.001225629 -0.0341445 0.03962893 -0.019095562 0.0034793946 -0.011015236 -0.003638722 0.0011287454 0.0007816765 -0.0038524284 0.022725938 -0.00066683727 -0.0114414245 -0.0105183525 -0.0009887583 0.012402923 0.0039085513 0.02313872 -0.018794786 -0.032612335 0.00080047833 -0.04501541 -0.008111933 -0.013806853 -0.0044337474 0.014625699
loss 0.011891144 -0.013014334 0.0003874554 0.008311953 -0.0149334185 -0.019264529 0.0036348626 -0.023060717 0.017558381 -0.00949242 0.017482065 -0.0038157527 0.039990507 0.0020174023 0.016805021 0.006959636 -0.020366663 0.0142904185 -0.027614443 0.02936727 -0.012362449 0.005223198 0.005996267 -0.037432265 -0.0054800916 -0.019432094 -0.010184973 -0.01320115 0.010671151 0.008697 0.0059719654 0.013603885 0.030960375 -0.0035200357 -0.0038605651 -0.016702494 0.013785372 0.020626849 -0.029532442 -0.014739989 -0.015942123 -0.021555368 -0.015347079 -0.02425318 -0.014217543 0.00097331224 0.006598366 0.00027440305
anthem -0.007431452 0.002107756 -0.0056912196 -0.004220107 -0.0080224965 -0.03168901 -0.0013751718 0.009306922 0.010607361 -0.0020578117 -0.00041843037 -0.008829615 7.497217e-05 -0.0019765117 -0.008640069 -0.0045408052 0.0034271558 0.024980864 -0.03482704 0.027709983 -0.0001524685 0.016780047 -0.010669782 -0.032021996 0.035526562 -0.017053979 0.006027953 -0.0055078273 0.0021205891 -0.008018636 0.0056848302 0.010102081 0.043418244 -0.015138942 0.00015198927 -0.017581372 -0.015795458 -0.0019718157 0.00058246136 0.01926757 -0.011270413 -0.029738735 0.002292796 -0.04837177 0.0011955675 -0.012297585 -0.0030303402 0.017488822
yemen -0.012277087 -0.009550275 -0.006423425 0.009723409 0.0066533852 -0.01757265 0.011624748 0.0048110913 -0.0021824501 -0.008725386 0.011640324 0.0051603112 0.027390908 -0.0072032614 -0.009598824 0.0041276617 -0.003598652 0.041040435 -0.017962102 0.008794851 -0.02563749 0.0061287107 0.0067617353 -0.021531306 0.0016239702 -0.0058936775 -0.007714695 -0.012206704 0.022006275 0.0122884605 0.009773037 0.024566008 0.028878504 -0.0012860375 0.004215126 -0.018742867 -0.010151687 0.019216057 0.0030064872 -0.001023455 -0.0008232835 -0.0012746624 -0.022536786 -0.0120041855 -0.016221123 0.005038046 0.017718265 0.02576685
oscar -0.02273781 0.010552564 -0.00017978933 0.0044333446 -0.010269929 -0.010066878 -0.0018736302 -0.018364185 -0.008515371 -0.01821108 0.002561899 0.012201328 0.025371319 -0.02173682 -0.028234849 0.0069892732 -0.016920405 0.04733423 -0.0085974 0.025579816 -0.030128798 -0.017537396 0.024138272 -0.013459054 0.0033901301 -0.016899645 -0.0023103037 -0.0027113045 0.01738576 0.027466366 0.0064552315 0.029093016 0.041064657 -0.0032110729 0.0049663563 -0.007816337 -0.010761631 0.03605525 0.010840051 0.004657358 -0.0040567107 -0.017651308 -0.028203934 -0.038619872 0.004329679 0.016824296 0.007288378 0.022775615
egypt -0.01049815 -0.0049722223 -0.014722991 0.0055845217 -0.0052442793 -0.022139082 0.006076245 -0.0007414712 0.010321093 -0.001235289 -0.00079536886 0.003920465 0.03513323 -0.022636447 -0.0129152 0.0026665498 -0.013566884 0.027118305 -0.02744252 0.016281405 -0.018458055 0.010602155 0.021710206 -0.026634336 0.019344373 -0.017254964 -0.016319705 -0.0034126292 0.02405127 0.0046846354 0.010388655 0.012841263 0.03936761 0.010110353 0.005037891 -0.0012410025 0.005973715 0.0288199 0.0022022221 -6.0549944e-05 -0.005982968 -0.009857862 -0.029916536 -0.030144842 -0.0037371996 0.008441067 0.017342867 0.01962363
chicken -0.021485034 -0.01255705 -0.0027920578 0.00495255 0.015053738 -0.00430495 -0.011702659 -0.008756016 0.008817852 -0.016701343 0.004470008 0.0016717548 0.016585344 -0.028327353 -0.013581368 0.015549912 0.004718416 0.03170476 -0.024728896 0.028633911 -0.01378346 -0.0101970695 0.016849143 -0.010316868 0.0006305231 -0.004653199 -0.018616859 -0.0036272004 0.012041024 0.0030973854 -0.000449576 0.009876783 0.041621692 0.008345618 0.00073246466 -0.014834335 -0.01449987 0.010878557 0.0003147502 -0.006142431 0.00048039784 -0.020207474 -0.019435633 -0.029163957 0.003632435 -0.00042992772 0.0084521305 0.032816198
award -0.0038739804 0.00517227 -0.0059758606 -0.006370531 -0.010607374 -0.020191891 -0.003248391 -0.004161564 -0.012509463 -0.01776796 -0.0037531545 -0.006825061 0.037228983 -0.030589476 -0.022425752 0.021640886 -0.010228135 0.036293037 -0.031210942 0.030762129 -0.028353972 0.0030429843 0.00924906 -0.02290698 0.01582458 -0.016540362 -0.0029210453 -0.019446373 0.020897595 0.023921868 0.015498029 0.013948137 0.04768542 0.0027425606 -0.008757118 0.0018641391 0.0009824677 0.039883226 0.009450684 0.008285423 -0.009126679 -0.008709212 -0.020856446 -0.03157958 0.0007231186 0.0049848245 0.00013104046 0.022194725
recipe -0.017438626 -0.013193169 -0.002227712 -0.0041805515 0.002390545 -0.024722638 -0.007835003 0.0022603476 0.0045202104 -0.00540523 0.014345189 -0.0034673114 0.015836278 -0.02834685 -0.017184552 0.020720897 0.0014986995 0.03541829 -0.028959822 0.027232891 -0.030771557 -0.0034945477 0.012258418 -0.02312252 0.002029844 -0.0075274133 -0.018421626 -0.00072743 0.016645169 0.017224787 0.003622283 0.01660173 0.027468294 -0.011859375 -0.006328087 0.002019922 -0.01201571 0.009866331 -0.006205762 -0.0051010153 -0.009115627 -0.0052204044 -0.02635745 -0.025533378 -0.014113843 0.007531842 0.01821672 0.03181099
diet 0.011033161 -0.018185671 -0.0013654305 0.004158861 -0.0112584485 -0.025130967 -0.008667082 -0.013362854 0.02151762 -0.026765205 0.0231476 -0.007957135 0.035512414 -0.0011159515 0.009354281 -0.0012688163 -0.0117595615 0.031006144 -0.028557008 0.023918618 -0.0033040817 -0.014961149 0.012702376 -0.027934087 -0.000917694 -0.030770883 -0.026922334 -0.007530075 0.016746204 0.01964113 0.0030005246 0.015555376 0.020206744 -0.021230372 -0.015466005 -0.012774948 0.0014551892 0.008654066 -0.027520662 -0.019477352 -0.007194418 -0.003397284 -0.01610435 -0.031261124 -0.016775494 -0.0048469836 0.025145741 0.023977468
journalist -0.013725486 -0.010004579 -0.00673997 -0.012083044 -0.0066242805 -0.02492273 0.012015122 -0.00861152 -0.010542943 0.0030586803 0.015857171 -0.0045411615 0.027199317 -0.015212975 -0.012542889 0.006492303 0.001683904 0.027418593 -0.03174852 0.027437204 -0.0152503215 -0.0020588783 0.0086885905 -0.008648131 0.009677738 -0.009905349 -0.004952472 -0.004129434 0.0250919 0.0027406174 0.009246798 0.0300329 0.039546333 -0.006625125 -0.013380931 -0.008820014 -0.004104372 0.014860102 0.0038066783 -0.0029680636 0.009280903 -0.014497849 -0.014689267 -0.034114625 -0.0016769851 0.003743153 0.015627809 0.027578318
facebook -0.004830397 -0.018930776 -0.0014739549 -0.009338697 0.0072627994 -0.015557377 -0.006758229 -0.019667821 0.012106388 0.0031113354 0.018129852 0.002014176 0.025864758 -0.012493789 -0.002862236 -0.003140612 -0.017531903 0.02045143 -0.02504644 0.028487537 -0.03544519 -0.015261832 0.017351199 -0.026260925 0.014669456 -0.0005887655 -0.015641136 0.008190398 0.015562215 0.0068551386 0.009149256 0.011163135 0.049820263 -0.004996318 0.004633797 -0.0003948682 0.0040082345 0.011336908 0.0072468286 0.0010847464 0.012059858 -0.0134220775 -0.01840388 -0.015853269 -0.010597788 -0.0037881676 0.023876807 0.0074384497
fish -0.0116978 -0.0029216527 -0.0025595154 -0.0014124025 0.0029216306 -0.022634605 -0.009660184 -0.002934055 0.0102405725 -0.006420289 -0.004345433 -0.010149028 0.026343172 -0.010762442 -0.011299897 0.006443846 -0.0058748014 0.023981446 -0.01974325 0.027160823 -0.02259861 -0.007058876 0.026190907 -0.011326482 0.018807145 -0.015479219 -0.022368303 0.0046894886 0.025022523 0.00065575086 0.0041861515 0.01322192 0.027417574 0.0027589987 -0.0065816054 -0.018793296 -5.299451e-05 0.01741212 -0.0035079243 -0.0059666224 -0.0052587087 -0.0076175374 -0.029413693 -0.027010797 -0.0021673222 0.0050180433 0.0021029853 0.02193627
sundance -0.005431313 0.0034566412 -0.01845721 -0.0008519499 0.006335214 -0.009310637 -0.011052555 -0.008855618 0.010684378 -0.01511685 0.0019427679 0.0035519258 0.032602552 -0.012111937 -0.024251625 0.021587545 -0.013268097 0.037523672 -0.0237461 0.028431375 -0.02989849 0.0065882173 0.024078112 -0.019456882 0.003168686 0.0037606342 -0.022230789 0.0039689913 0.026385361 0.019168803 0.015903102 0.02733176 0.031615373 0.0033043174 -0.005947324 -0.0027098807 0.004631077 0.031358786 0.0054044807 0.0044397064 -0.008779731 -0.025112558 -0.017089255 -0.03795483 0.004343216 -0.009704303 0.01612563 0.027241873
will -0.017263807 0.0072020213 -0.019049201 -0.009840541 0.0096440185 -0.010569777 0.005821012 0.0025131165 0.010084714 -0.010299634 0.014202747 -0.0014000892 0.03899688 -0.02718457 -0.020053754 0.009724241 -0.012929555 0.047296733 -0.026737083 0.023408389 -0.01584963 -0.006075619 0.0254914 -0.017766533 0.0027031845 -0.016666738 -0.010974248 0.002728015 0.023917932 0.016704319 0.019393198 0.021332702 0.048545938 -0.009571699 -0.0023792465 -0.011463957 -0.012186698 0.024120584 0.0035416537 0.0013800509 -0.011234862 -0.022734603 -0.025881656 -0.031236695 0.0005247948 -0.009320246 0.010384521 0.018604027
text 0.0069187297 0.013083965 -0.0050998325 0.011401309 -0.01162373 0.000121484525 -0.0064743347 -0.01701727 0.0015554217 0.005269663 -0.0009186207 0.011263523 0.02121123 -0.027066922 -0.010450828 -0.009104503 -0.013950304 0.021466844 -0.011356565 0.013165081 -0.026281862 -0.006555723 0.0034877579 -0.004683334 0.0015198494 0.0086565595 -0.02329413 0.0059757503 -0.002649726 0.0035076977 0.012886999 0.025803907 0.018551983 0.00063134154 4.156795e-05 0.008868312 0.0037958052 0.016068134 -0.01040056 -0.007572729 -0.0025535438 -0.027771415 -0.010531871 -0.029266858 -0.014257025 -0.01738429 0.011496919 0.0005231732
plan 0.013286935 -0.024128335 -0.013671786 0.01092639 0.0033828588 -0.03183239 -0.002166801 -0.008724188 0.00595202 -0.020711293 0.023121534 -0.009420612 0.031680677 0.0077981735 0.0058761504 -0.0033332012 -0.018071087 0.019697798 -0.018289471 0.016579749 -0.0024941224 0.00042094177 -0.004447727 -0.031748634 -0.012987322 -0.011902456 -0.021494964 -0.0028928427 0.004950681 0.011007943 0.005391629 0.0030071142 0.022362258 0.0010357479 -0.016592285 -0.0098213665 0.0077684517 0.013199003 -0.009536153 -0.013219643 -0.005812652 -0.013204433 -0.013637407 -0.040963657 0.0027529707 0.009729313 0.0187602 0.01257389
president -0.016959919 -0.0060427017 -0.018794358 -0.007468204 0.010748876 -0.025140628 -0.009024942 -0.009708956 0.00016975657 -0.005641677 0.017255723 -0.009891137 0.035418246 -0.010825079 -0.026253907 0.0038725655 -0.007760701 0.028667286 -0.009035909 0.028029917 -0.02132111 -0.0006147277 0.025059119 -0.008841598 0.014205298 -0.0029095628 -0.016081665 0.0076413727 0.019800797 0.011903048 0.0146983545 0.029383019 0.0374289 0.0006368261 -0.012029968 -0.0028077897 0.0001623052 0.029606367 0.000118645024 0.007924437 -0.0026775748 -0.004640568 -0.03234734 -0.019603115 -0.008327492 -0.0067685 0.004913611 0.020155469
health -0.003579406 0.004440217 -0.0066995583 0.005307051 -0.0046323477 -0.0053829974 0.012172588 0.0014439648 -0.004872723 -0.020326748 0.01690535 -0.0031815674 0.032915022 -0.024528079 -0.01901752 0.00019579864 -0.023254173 0.016868636 -0.029587412 0.01738397 -0.027347928 -0.005787414 0.01290186 -0.024627816 -0.00017077253 -0.0022606913 -0.0022368997 -0.016436975 0.019795833 0.019818176 0.02364153 0.00795924 0.027150534 -0.00013842298 -0.016667577 -0.021880157 0.01001592 0.029196292 -0.0030641172 0.0031541653 -0.0055129514 -0.026231505 -0.03407626 -0.029593807 -0.0079844035 -0.008142903 0.0029989432 0.019589353
social -0.01009961 0.0013200532 -0.011842845 -0.004664796 -0.00056119193 -0.023941323 -0.009455378 0.0038004313 -0.005578172 -0.012472006 0.00026873074 0.005446783 0.026946362 -0.0060192174 -0.019010149 0.0069810343 -0.019113274 0.036991708 -0.019409219 0.029348224 -0.008025632 -0.0016329557 0.0035755516 -0.026218273 0.018269887 0.004558035 -0.016690835 -0.011313517 0.0034963372 0.023406208 0.0014158948 0.02545784 0.029205086 0.0015639447 0.0032349299 -0.009214418 0.011263515 0.015165876 0.010151989 -0.015113031 -0.006702173 -0.010440523 -0.022679312 -0.024290198 0.0009797252 -0.006195288 0.017529614 0.034137353
drive 0.0023943787 0.010795118 -0.015960872 0.0022583387 0.004111666 -0.02028425 0.014792792 -0.0016702738 -0.004922139 -0.0014046147 0.012294304 0.005806757 0.031679757 -0.01496996 -0.0058579706 0.0028353524 -0.020568708 0.032282043 -0.02866912 0.013721533 -0.01674948 0.014109843 0.020828089 -0.005096753 0.008617588 -0.010912939 -0.011419874 -0.00567755 -0.0013237775 0.005622217 0.00065968215 0.024608368 0.018573292 0.014538828 -0.0055797915 0.009808803 0.0034604517 0.01750894 -0.008162009 0.008780127 -0.01607516 -0.004239837 -0.029373161 -0.01278794 0.009226737 -0.01461793 0.009684887 0.01532282
time -0.019144634 -0.011394475 -0.007447214 -0.0075023216 0.014108662 -0.0033862793 -0.0027602944 -0.005558577 -0.009122532 -0.0072528194 0.013472171 -0.0035800189 0.022542387 -0.0041704 -0.0061798263 0.018268127 -0.01518139 0.032054525 -0.025529971 0.016117921 -0.016190605 -0.010444103 0.023580004 -0.021607438 0.008491785 -0.0122528905 -0.019162646 0.0015675711 0.0069343094 0.013044689 0.0042952644 0.02478937 0.03453212 0.008322783 0.0026965323 -0.011485946 0.0031343417 0.021252505 0.007869131 -0.002767078 -0.008847727 -0.019892491 -0.015913485 -0.020282503 -0.011294999 0.008292699 0.017704695 0.028466715
judge -0.0058802767 -0.0061195605 0.0002701749 0.004840267 0.008527176 -0.019304011 0.0126284845 -0.005237833 -0.0010914294 -0.012389852 -0.00013872275 0.011431783 0.02503105 -0.011482235 -0.01401665 0.015409278 -0.008338063 0.02834573 -0.012772909 0.012701965 -0.010526889 -0.007676243 4.5328088e-05 -0.013978387 0.017726056 0.0035881924 -0.00034000794 -0.019114533 0.009121025 0.0022914715 0.023468973 0.008775755 0.015416999 -0.008096605 -0.014060085 -0.0021170694 0.0044075656 0.029550474 0.0008318247 0.0021878292 0.002477456 -0.017688168 -0.018370334 -0.023133693 0.0056994413 -0.0053285277 0.017989716 0.0077264924
court -0.003299574 0.0061580245 0.0057590706 -0.0039073373 -0.00021845088 -0.009866299 -0.007924981 -0.0009955015 -0.009488128 0.003121181 0.018427962 0.00816544 0.030563839 -0.00868838 -0.016370751 0.017512586 -0.0038753266 0.031859744 -0.016406776 0.014528526 -0.011308247 -0.016286794 0.017015517 -0.025215145 0.011391998 0.0038301093 -0.012695922 -0.0041154544 0.022181232 0.006076118 0.010454189 0.016013078 0.034482714 -0.008394946 -0.0007260806 0.0065040877 -0.012139308 0.033344857 -0.00028445153 0.009182618 -0.015950723 -0.031383406 -0.035494734 -0.03248857 -0.0054729795 0.006331277 0.015302518 0.027735714
law -0.006028301 0.007835871 -0.0141562335 -0.0059373854 -0.0030127226 -0.00841968 0.004112676 -0.012881037 0.0012386112 -0.015895315 -0.0016534298 -0.0076753264 0.021489525 -0.022131 -0.017911607 -6.396134e-05 -0.009424691 0.018813124 -0.017265648 0.016326118 -0.017210044 0.0067753154 0.0045872955 -0.014938447 0.0040730443 -0.0033294803 -0.0030126455 -0.01673693 0.01482663 0.01754053 0.0147275785 0.021611808 0.018788984 -0.010893652 -0.009595753 -0.01088208 0.0016552315 0.029072473 0.0038494081 0.0052101426 -0.0061887917 -0.025970701 -0.0334715 -0.03929437 -0.015804661 0.01075302 -0.0013081579 0.019972105
protest -0.014640983 -0.015589087 0.0051609827 0.009092421 0.015569528 0.00048292094 0.004181976 -0.014949656 0.0003070417 -0.016314784 0.01041388 -0.002118627 0.008318587 -0.01883161 -0.020426735 0.0025089676 -0.013174937 0.035010032 -0.004371094 0.007137505 -0.027149638 -0.006337696 0.021440476 -0.010555758 0.0143637 -0.008932235 -0.00039966588 -0.012842175 0.007215929 0.010651805 0.0040879603 0.020682119 0.037991293 -0.0074151843 -0.0039998773 -0.010508678 -0.008360392 0.024767848 0.012608731 0.009135974 0.0015237181 -0.0075010555 -0.017289724 -0.011228565 -0.01329358 -0.00086567714 0.0022062343 0.01452489
nomination -0.012038635 0.008631834 -0.01405212 -0.016041141 -0.009197733 0.0024093161 -0.017471405 0.0011502128 0.007337448 -0.013397871 -0.011134194 -0.0075022597 0.012781372 -0.016815923 -0.0010424956 0.009877207 -0.006209378 0.032290284 -0.004793863 0.008612745 -0.020622676 -0.006626842 0.018150652 0.0010777648 0.012158695 -0.020965334 0.0046943557 -0.0051153125 0.015466771 0.017736647 0.0061934185 0.012307041 0.03842971 -0.0012299133 0.0035914776 0.0001559165 -1.4628553e-05 0.02516824 0.0025937054 0.005746866 0.009308484 -0.015805956 -0.006165046 -0.020267352 -0.0103418855 0.01554826 0.002028322 0.023663504
fly -0.018077603 -0.010762866 0.0016593639 0.0013708292 0.004616724 -0.0116548175 -0.001311756 -0.01344539 -0.0018198789 -0.013236819 -0.00070043956 0.0037232498 0.018904904 -0.021027204 -0.020561857 -0.0024229179 0.00013635385 0.028477369 -0.0118541075 0.016998313 -0.012004157 -0.007049581 0.0048608785 -0.0010745318 0.0050508305 -0.014186522 -0.0015953641 -0.0050908825 -6.626378e-05 -0.0061617284 0.0013438916 0.011720138 0.013283776 -0.00432096 0.0008578274 0.0028889866 -0.01177954 0.023288555 -0.011114355 -0.007952021 0.0071256454 -0.0099043725 -0.021234473 -0.02615616 -0.0128960125 0.00527627 0.014301634 0.022316106
report -0.0058778827 -0.008420397 -0.008378894 -6.8896734e-05 0.001008964 -0.01772831 -0.0042292727 0.0059540835 0.0054238993 0.0015369173 0.011748858 0.0070508225 0.019301355 -0.0040375562 -0.015221359 0.0056889164 -0.014619464 0.027975837 -0.020584017 0.0066783666 -0.004858262 -0.008247091 0.006111472 -0.010450496 0.013142071 0.00019421449 -0.015429515 7.9421756e-05 0.008065236 0.013801693 -0.0014801777 0.005006703 0.03299523 0.0055610454 -0.004428978 0.0019273178 0.004019226 0.023797605 0.0031174808 -0.0044840956 0.000938541 -0.011031796 -0.008877721 -0.030183079 -0.0136562735 -0.0026664787 0.007732142 0.022196315
video -0.017296301 -0.0044579147 0.000506241 -0.0019444539 -0.007487675 -0.011359733 0.010855602 -0.009669041 0.0044499584 -0.012137241 -0.0039842892 -0.006935756 0.01149963 -0.015485875 -0.018172512 0.013031224 -0.010060843 0.021131137 -0.01629659 0.007865846 -0.0044982946 -0.0061330986 0.0038043477 -0.01424271 0.0042813714 -0.010359073 0.004082461 -0.0050414884 -4.5369005e-05 0.014056523 0.006350675 0.0074913395 0.02495707 -0.001983078 -0.012656373 -0.004923885 -0.0022097852 0.020902157 -0.0059736283 0.011030411 0.0010123551 -0.01666597 -0.017821731 -0.019012498 0.0072914376 -0.009997822 0.015407351 0.014270407
day -0.017739158 0.0044984454 -0.013717897 -0.0042302166 0.005552604 -0.015154175 0.008655568 -0.0021539212 -0.0066837193 -0.001835269 0.010948491 -0.00912963 0.013139267 -0.019392876 -0.01645546 0.010457265 -0.008345584 0.02737583 -0.008421024 0.005105564 -0.02402337 -0.0028643736 0.018363325 -0.008375906 0.0051552537 -0.0018551534 -0.008472573 0.001303781 0.013989731 -0.0012570751 0.013449326 0.024037426 0.03642187 0.0092126485 -0.00057866017 -0.015328124 -0.001754188 0.010679508 -0.0010185749 0.001990703 0.005800607 -0.01627353 -0.020464307 -0.024206737 0.0049105566 0.00033043016 0.018306803 0.010107653
taco 0.0015485262 0.009248805 -0.012328019 0.0060494174 0.0025750673 -0.025505874 0.017016971 -0.007567168 0.0023729193 0.008313007 0.013191078 0.01388419 0.03844552 -0.013513508 -0.001872382 0.0031351529 -0.023412894 0.036918398 -0.026328437 0.005337383 -0.014789664 -0.0014672825 0.022002004 -0.01899007 -0.00014602976 -0.0068527064 -0.016260408 -0.009648607 0.026177233 0.023885837 -0.003798234 0.019489398 0.016433964 -0.00786957 0.008602671 -0.0138650015 -0.009016892 0.034119897 0.011184848 -0.0072341803 -0.00885942 -0.01793116 -0.02869183 -0.041790772 -0.024877455 -0.014484046 0.010794384 0.029263722
buy -0.014952308 0.005078173 -0.013468367 0.010195431 -0.011958999 -0.023044806 0.012642934 -0.011845836 0.00393714 -0.0142072765 0.009449972 -0.0018559603 0.0333771 -0.0228725 -0.0017830564 -0.00020432114 0.0035924397 0.015866404 -0.023970328 0.028376056 -0.024259117 -0.006631166 0.01605442 -0.013943555 0.008231287 -0.015207618 -0.004614699 0.002456806 0.0071954937 0.0019873844 0.002507948 0.019147009 0.035403382 -0.0004362009 -0.012597164 -0.013694773 -0.008467123 0.019012231 -0.017919999 -0.008863038 0.010481385 -0.026499351 -0.014098929 -0.034628958 -0.0076833414 -0.012561425 0.006152757 0.017031778
ap -0.015549372 -0.010792485 -0.013390831 0.006821262 -0.004059624 -0.019795261 -0.00486515 -0.0061960155 -0.003045355 -0.01151333 -7.2393756e-05 0.008105917 0.029645002 -0.020222615 -0.014253335 0.0032769945 -0.01719557 0.033285562 -0.015229171 0.012181735 -0.025291068 -0.005332784 0.010938599 -0.016677521 0.006881556 -0.014795589 -0.011070033 0.004528289 0.017481469 0.00525463 0.017175479 0.024550851 0.029742334 0.0058733216 -0.008206934 0.002547454 -0.010193942 0.024678923 0.007848866 -0.0059403037 -0.0028105194 -0.020364888 -0.018173097 -0.020372154 0.0014000481 0.008013576 0.00054266927 0.025583083
ad 0.003840822 -0.0033451468 -0.011219483 -0.0071182963 0.0019696634 -0.010293672 0.009083514 -0.013426213 -0.0026196777 0.004307764 -0.0062786886 -0.006163752 0.022380687 -0.006501059 -0.021740561 -0.005143985 -0.0036513472 0.022118673 -0.011729448 0.022129932 -0.022702117 0.010644799 0.009825475 -0.012258843 0.0049956446 0.005226839 0.0048628156 -0.0064155958 0.017509421 0.014674777 0.0074855196 0.005035342 0.027513571 0.007898027 -0.0017539493 -0.019098694 -0.002871805 0.019233229 -0.0063849026 -0.007370091 -0.0072181714 -0.005300819 -0.010797496 -0.0050121876 -0.012720323 0.0039972314 0.007185782 0.0251554
chicago -0.020110806 -0.0047204774 0.0026079828 0.0021505211 -0.0039816997 -0.003016076 -0.008970137 -0.001345581 -0.009475574 -0.002091984 -0.006139644 0.009032147 0.031548895 -0.018202709 -0.019181488 0.0042000897 -0.0041939877 0.024297554 -0.011409983 0.018224481 -0.017375425 -0.0032592083 0.012634513 -0.016366668 0.023016643 -0.0048832595 -0.013173184 0.006946793 0.008173382 -0.0014236138 0.020210309 0.017721273 0.043924596 0.00896808 -0.008980873 0.007706481 -0.001847345 0.02446753 0.0045709787 0.0063144797 0.0027604534 -0.02224183 -0.016440583 -0.020009723 0.006007623 -0.0022237233 0.013305459 0.021055002
film -0.015883101 0.008543143 -0.001318891 -0.012887021 -0.0018618265 -0.014310834 -0.0064205853 -0.012445219 -0.00081796217 -0.01724004 0.013263994 -0.010958812 0.024285525 -0.020320522 -0.012732475 0.019488672 -0.010087935 0.039564002 -0.01660628 0.021267567 -0.008863021 0.0031251116 0.022570131 -0.0027134684 0.0078967465 0.002717224 -0.0005628801 -0.015838109 0.023482237 0.011213494 0.0013857129 0.01443716 0.028575765 0.0070909564 -0.0069589494 -0.0083083 0.004573057 0.009227407 -0.008688303 -0.013489438 -0.0112955645 -0.013188975 -0.021370502 -0.023492359 -0.008394975 -0.0029015485 0.008971541 0.00925321
good -0.015720876 -0.002162829 -0.01105448 0.0034659358 0.008112571 -0.0015420985 0.008204049 0.0037277485 0.007961171 0.0037624394 0.0076598553 -0.0022592791 0.013551556 -0.0141381 -0.017526574 -0.00024985074 0.0032345678 0.025062224 -0.022597544 0.004634572 -0.0149262035 0.0047789826 0.01704997 -0.010446282 0.010265643 -0.0070137214 -0.005067323 -0.0119418 0.0109306695 0.01383666 0.016424969 0.016970662 0.034547295 -0.0036170993 -0.010431739 0.0007061451 -0.0063211923 0.027286528 -0.0132593205 -0.006145421 0.0015740143 -0.022352006 -0.009895165 -0.013061561 -0.0025370019 0.007289351 0.0043896455 0.023429075
obama -0.016783046 -0.008547218 -0.0146233365 -0.0028675566 0.008587921 -0.013607255 0.0043391124 -0.013315377 0.008959344 0.00067264924 0.0067480784 0.01105027 0.02016688 -0.011316451 -0.012190359 0.008894247 -0.0043168785 0.019794272 -0.010800359 0.005259187 -0.023210356 -0.002417151 0.008468436 -0.016858509 0.003775393 -0.001886435 -0.0040892027 -0.0076005263 0.018212764 0.00842555 0.016802665 0.0065257205 0.023980543 -0.0077361926 0.0020865109 -0.019802129 0.009046425 0.025494771 -0.006191211 0.001199799 -0.000792755 -0.018329786 -0.029408216 -0.033119686 -0.010421883 -0.006522275 0.00027827566 0.013268029
love -0.0031945545 0.0050341035 -0.011513058 -0.009142492 0.008147054 0.0036429232 -0.0030784553 -0.0103042405 0.00871257 -0.0021892595 -0.0028217935 0.008002672 0.014502187 -0.0076549533 0.001596081 -0.006302684 -0.0010817843 0.019623531 -0.010676191 0.008439261 -0.0034858775 -0.0074736276 0.0072492124 -0.013893172 0.016019423 -0.0041435785 -0.007900201 -0.0038257344 0.0130827855 0.00957423 0.0039649867 0.006342573 0.019197593 -0.0050979187 0.0044961604 -0.00461898 -0.011647832 0.006593239 0.0028308148 0.0010689094 -0.010631013 -0.017831339 -0.0021594418 -0.016051626 0.006128679 0.0112766465 -0.0029724536 0.011590367
top -0.015504184 -0.0011020312 -0.011685089 -0.00012721877 -0.0028063215 -0.013378003 -0.0017883396 -0.0021855214 0.002094265 -0.00023840366 -0.009337856 -0.006758178 0.02710453 -0.02331649 -0.016406067 0.012742346 -0.00042418094 0.029635191 -0.016004018 0.004482044 -0.02289566 -0.00774605 0.0011968062 -0.006571457 0.012977885 0.0014653804 0.005321545 -0.009175431 0.005721919 0.011707039 0.0169514 0.019952465 0.01657841 0.009351048 0.006144817 0.0015491942 -0.0029625844 0.013086273 0.0016715765 0.0009841907 0.004233403 -0.006366704 -0.015135139 -0.028934967 -0.009683567 0.00896787 0.016209334 0.019601446
medium -0.01974472 0.011827623 -0.009490485 -0.008597364 0.009700098 -0.0065397522 -0.006518909 -0.0033095046 -0.008706795 -0.01281977 0.0067143403 0.0025071602 0.023306428 -0.0028873452 -0.0028173078 0.009751857 -0.015718736 0.013465324 -0.0027361338 0.00042054735 -0.0086708255 0.002114615 0.0020014918 -0.0031326048 0.0047652232 0.0043282616 0.0009588864 0.00038393022 0.017325398 0.014368962 0.013562683 -0.00023436174 0.026306214 0.00064596 0.0014500461 -0.00874921 -0.0069482415 0.013589123 0.010869693 -0.012758261 0.011522374 -0.010789483 -0.0062785684 -0.02555381 0.0032819663 -0.0056897984 0.020644909 0.028751673
bell -0.024888458 0.008517783 0.0039262543 0.004305796 0.0038661228 -0.013704029 -0.002198142 -0.013769632 -0.010444771 -0.0046233595 0.012926312 0.011140073 0.03586285 -0.023907097 0.0019045288 0.022269877 -0.0051890453 0.0195435 -0.0068273842 0.0075745303 -0.032759093 -0.011316992 0.015081794 -0.009604298 0.0111957975 -0.0012969469 -0.0051555634 -0.0012398096 0.025288165 -0.00030216546 0.005730006 0.014582624 0.032571565 -0.009021569 0.008874997 -0.00958042 -0.0077838334 0.02235961 -0.007921356 -0.0035808743 -0.022955108 -0.0066821133 -0.017200748 -0.03928425 -0.012113908 -0.0048452807 0.008503508 0.040301275
scholarship -0.015957102 0.00083560724 0.0020983217 0.007038318 0.0051870327 -0.010978781 -0.006210541 -0.009121793 -0.002592607 0.0053291144 -9.4726405e-05 0.004328358 0.012409721 -0.0012786002 -0.02029351 -0.00014692158 -0.015750067 0.02902073 -0.021202205 0.022874815 -0.020573152 0.0030467084 0.016267566 -0.016880192 0.0062929825 -0.008918353 0.0019693973 -0.00988868 0.01035309 -0.0013373445 -0.0029355837 0.0116068 0.0348372 0.0071457066 -0.011065145 -0.0065063993 0.00074557634 0.017366594 -0.012101953 -0.014093304 0.008889275 -0.018417833 -0.015827432 -0.021019625 0.0048312484 -0.005195662 0.016297862 0.027162526
beef -0.013804896 0.0077088773 -0.015931575 0.004109622 -0.0027401322 -0.008045857 0.013678738 -0.009316665 -0.0025297853 0.00342664 0.01148517 0.0031348409 0.031568516 -0.016119797 -0.0023454933 0.014615433 -0.015584247 0.017470328 -0.003511395 0.0018480411 -0.0226421 -0.0045623383 0.021486457 -0.0048628766 0.0074281446 -0.011618455 -0.018125132 0.006168984 0.010850033 0.016942175 0.0028453288 0.005127688 0.028438987 -0.0060800184 0.011336097 -0.01633523 -0.012013969 0.011969314 0.008536085 -0.011218087 -0.017152136 -0.017761791 -0.029611079 -0.025299618 -0.016529648 -0.0036965641 0.020343611 0.028481489
win -0.012647066 -0.0067227 -0.013865902 0.0049703256 0.0044149486 -0.016329784 0.0046335137 -0.012090398 -0.004143476 -0.0013656624 0.009658268 -0.009154269 0.017858487 -0.024516435 -0.013124309 -0.0036312586 -0.0063275946 0.027217008 -0.021390675 0.0054709967 -0.013212787 0.0035742265 0.01467298 -0.009358793 0.014139094 -0.002202457 -0.009921679 0.0011650692 0.0071951263 0.007795455 -0.0012381019 0.0054738973 0.030972004 0.0007142801 -0.007883812 -0.014964069 0.0023508908 0.026882868 -0.005721837 0.006847028 0.0028955135 -0.012479462 -0.0065063513 -0.023737647 0.0077177254 0.0029070466 0.0018416875 0.008422039
reuters -0.0062901773 0.0084817335 0.0036209752 -0.011198559 0.0035194939 -0.021071857 0.0041898005 -0.013661042 -0.0042813173 0.0021708945 0.005823129 0.0058144764 0.01620154 -0.010740458 -0.019114437 0.017949736 -0.003562407 0.029550042 -0.016642757 0.024598753 -0.017156549 0.0068963496 0.009063696 -0.01881729 0.002016745 0.0016905915 -0.0027855788 -0.0076620486 0.019150851 0.012856789 0.011739845 0.013967009 0.02056271 0.0059426706 -0.011762128 -0.005666629 0.0069835265 0.019296603 -0.0075257197 0.003023932 -0.00014567847 -0.024093973 -0.020965945 -0.02077227 0.0034530761 -0.0047376812 -0.0003321288 0.017789716
doritos 0.0067668143 -0.012096221 0.008575607 -0.008106759 -0.007774318 0.0028955166 -0.0023540587 -0.005292226 0.0054085543 -0.004425553 0.008500114 0.0038741215 0.004251445 -0.0018115006 -0.014058615 -0.0015105135 0.0032793374 0.0048804423 -0.00035077284 0.0035882322 -0.017599512 -0.0038931633 0.0043384936 -0.0051170206 0.015119675 1.2780662e-05 -0.003460853 0.0050542387 -0.0017194131 -0.0012126628 0.013106011 -0.0017591638 0.02313638 0.0030789834 -0.0036639103 -0.016149364 -0.00082166085 0.016883528 0.004821661 -0.008969648 0.0072590197 0.00011293493 -0.0074839233 -0.01507502 -0.003545658 0.010194533 0.004455573 -0.0006425566
movie -0.018622033 0.00013062004 -0.00674343 -0.0002723691 0.009886719 -0.0040773014 0.006893852 0.006524903 0.010195612 0.0013160506 0.0036920842 -0.011292805 0.027381256 -0.011086069 -0.0020347396 0.017265702 0.00017450098 0.031309802 -0.018310605 0.016222538 -0.017361315 -0.0018349552 0.0005744691 -0.010605857 0.015247924 -0.016862389 -0.012945104 -0.013249006 0.012389268 0.00068205263 0.007695783 0.016513154 0.021715323 -0.011755292 -0.002626197 0.0005270924 -0.013496977 0.018536715 0.0045219664 -0.0072567435 0.004622441 -0.003645105 -0.012471415 -0.02273386 -0.0067210486 -0.0064370395 0.013886012 0.014373974
thousand -0.014243084 -0.013267282 0.005784049 -0.006004824 0.00664629 -0.0140134 0.004449465 0.006685512 0.006403699 -0.0077714315 0.016507989 4.0613653e-05 0.022919552 -0.017962473 -0.018391134 0.001233641 -0.0073321415 0.025600294 0.0012610285 0.009154277 -0.01788221 0.007633851 0.015999472 -0.008032472 0.010782435 -0.006086182 -0.007352724 -0.00010182463 0.0035481593 0.009384262 -0.002443548 0.011081149 0.026173552 -0.0066837054 -0.0060811555 0.004760575 -0.0017395987 0.025018519 0.008886757 -0.005200253 -0.0106467195 -0.0071160113 -0.025309462 -0.01089033 -0.0073796124 -0.0043730843 0.015449716 0.002422447
don -0.005099871 0.013784431 -0.0022531003 0.0016651044 -0.00040660473 -0.017257473 -0.0032275436 -0.003162777 -0.0030699442 0.0041159354 0.011312497 -0.00031768452 0.028900407 -0.0013656719 0.0024303317 0.0032989597 -0.007721615 0.028291002 -0.01887647 0.015940834 -0.01917745 0.0066763936 0.011698008 -0.0005492276 0.0018175873 -0.007339212 -0.01558877 0.0024274744 0.012918639 0.0015254709 0.00033975326 0.0133235715 0.027552968 0.005234941 -0.007066461 -0.003891115 0.00481416 0.018133495 -0.0027323868 -0.0017446175 -0.0007429382 -0.012097995 -0.009888719 -0.022843357 0.0057707666 -0.009574015 0.010791689 0.015358452
jan -0.0077636987 0.00080850156 -0.004286576 0.008620241 -0.00828633 -0.005975896 0.0030663628 -0.004148809 -0.0106773395 0.0024034248 0.006693779 -0.010722718 0.020563047 -0.009064752 -0.0007508075 0.008026213 -0.00021924534 0.017383901 -0.002708879 0.020848123 -0.009162816 0.007839065 0.018452778 -0.0034022043 -0.001620898 0.0043872516 -0.013775314 0.0011419667 0.015273381 0.0006988604 -0.0037579446 0.009911033 0.02902631 0.004609048 -0.0055336934 0.001376514 -0.0049827048 0.0051242374 0.010201515 -0.0026728162 0.008094391 -0.008755401 -0.018212771 -0.028546339 -0.002528393 0.003940224 0.010950911 0.017705645
giffords -0.013155751 0.0025872774 -0.0008601172 -0.011835792 0.01488708 0.002700855 -0.0047374275 0.0030633202 -0.006675162 -0.01293017 0.017017784 -0.007964559 0.0052906047 -0.006756655 -0.0005706395 0.014998082 -0.0018700425 0.021558238 -0.016389597 0.020138096 -0.022520997 -0.010931548 0.0011418231 -0.01735425 0.00024409607 0.004443869 -0.0037794528 -0.012204462 0.021483066 0.017123463 0.014384754 0.0026568212 0.022919323 -0.004332314 -0.00535467 -0.00019261091 -0.0040277187 0.024865745 -0.0036259908 -0.0067233224 0.007387545 -0.011183972 -0.008494411 -0.009600698 0.0032875685 -0.0063683316 -0.002043219 0.014188733
privacy -0.02234893 -0.01359963 -0.006899674 -0.0080072805 0.007248326 0.009309646 0.00347081 -0.018417113 0.0069817677 -0.0029269515 0.01842218 0.0009198636 0.023132661 -0.015516341 0.0031694837 0.0042314124 -0.019970125 0.008830822 -0.0039921138 0.019872464 -0.014247811 -0.00362109 0.011992967 0.0038862317 0.013210951 0.011467602 0.0019220299 0.012636656 0.013493316 -0.00384247 0.012033531 0.003930576 0.035016157 0.0069280127 0.00016768574 0.0028241707 0.0016833217 0.013111303 -0.006696464 -0.015470781 0.0040241536 -0.022117952 -0.00183934 -0.012860466 -0.008293363 -0.0069705835 -0.0010532623 -0.00012387791
tip -0.016353881 -0.0025615457 0.006156546 -0.0030454623 0.013183154 -0.01041618 -0.0028266557 0.0019836097 -0.0094105005 0.0015682739 0.012008191 0.002987226 0.02515057 -0.0067028007 -0.004838742 -0.00031060874 -0.003894336 0.01848907 -0.019654682 0.0064899246 -0.019937616 -0.0008694795 0.0023844612 -0.021323161 0.012416515 -0.0052483142 -0.016359773 -0.003939609 0.015894983 0.012790945 0.0130304275 0.0037430248 0.013308489 0.008650725 -0.0050390516 -0.005707229 -0.009941624 0.010611495 0.00044548846 0.008125111 0.0016493188 -0.001027563 -0.005962476 -0.020893117 -0.00857919 0.0022861566 0.011862596 0.011373957
rule -0.0009135097 -0.005870862 -0.013570026 -0.009553139 -0.008257549 -0.015667044 0.010193034 -0.0035232457 0.009381241 -0.0060023316 0.0059446236 0.007879029 0.026553335 -0.0210134 -0.01346252 -0.004786913 -0.016513793 0.020560334 -0.014448241 0.010878316 -0.012912099 -0.011558738 0.0020597784 -0.0030878016 -0.0011878975 0.0055327946 -0.0023569597 -0.015910238 0.009504065 0.01587426 0.020293703 0.0029349672 0.01136951 0.009846336 0.0016019532 -0.016987117 0.0007528707 0.01917734 -0.007166917 0.0066106506 0.005899303 -0.0027373256 -0.024086328 -0.017412148 0.0014221146 0.013265071 -0.0042381203 0.023579018
today 0.00075216126 -0.0048331306 -0.0044109244 -0.010142875 0.005087602 -0.014279369 -0.003221204 -0.004865419 -0.010517186 0.00086999603 0.013353306 -0.0060455007 0.011083533 -0.00013355017 -0.00041705134 0.0042360807 0.0015786362 0.01793511 -0.0022830667 0.012385982 -0.0022605592 -0.010957464 0.00763508 -0.00566995 0.0141451955 -0.011562582 -0.0134104695 -0.002006367 0.009132228 0.011508645 0.014900301 0.0054778266 0.02683554 -0.0012226627 -0.013128206 -0.011158531 -0.00029705683 0.0110032335 -0.011578179 -0.0035497095 -0.0069532436 -0.0015385383 -0.0019827331 -0.025049388 0.0054103 -0.0064152516 -0.00024645592 0.010644381
airport -0.010283765 0.0058213365 -0.0014903282 0.008685719 0.0032409285 0.0033737929 0.004264375 0.009405575 0.0050224788 -0.00463316 0.003178702 0.0045026517 0.021711508 -0.004828592 -0.0019534847 0.009644396 0.009808784 0.021446189 -0.016592132 0.011831129 -0.022557497 -0.0069101206 0.019557277 0.0011569941 0.0138934925 -0.016424496 -0.007322272 -0.012061884 0.008226806 0.0037393067 0.00864261 0.013657798 0.013137118 0.011942485 -0.008270437 -0.008049278 0.007933998 0.01026143 -0.013185591 -0.015098379 0.0100307595 0.0011331296 -0.014659738 -0.016815612 3.51843e-05 0.009012135 0.0102699185 0.0050522853
watch -0.014545116 -0.0033243597 0.0020883596 0.0012860576 0.0013833067 0.0026769647 0.0019045161 0.0013392144 0.006521639 -0.011536081 -0.009409644 0.00096012285 0.00868963 0.0020039661 -0.007857253 0.012403293 0.006989867 0.007722059 -0.009978884 0.014199291 0.00052691647 0.0075601544 0.013969997 -0.009984474 0.011218995 0.0061984756 0.005668717 0.00033663728 0.009380663 0.0090157185 0.010002374 0.0069121956 0.022754543 -0.009422173 0.0067701098 0.003316146 -0.009856342 0.015735328 -0.0050736894 0.0021319096 0.0035022574 -0.012492881 0.0009084172 -0.013069157 -0.0052975756 0.008280225 0.015584102 0.013889109
college -0.016448319 -0.007944279 -0.014678869 0.0040864493 0.008928479 -0.018342245 -0.0034325288 -0.014022246 -0.0033620778 -0.00079728337 0.0045525674 -0.0010733927 0.004879697 -0.009830013 -0.014455114 -0.0020916488 -0.015115242 0.019037282 -0.01813423 0.014978483 -0.020109912 0.002870957 0.00837163 -0.012850794 -0.0016310544 0.0060626343 -0.0076163756 -0.012706308 0.017025935 0.00090909994 0.01493594 0.0066066007 0.030658267 -0.0050255773 0.0043727946 0.0008380423 -0.0002820232 0.021455653 -0.0012128033 -0.0020232424 -0.003197698 0.0003813054 -0.02005431 -0.019900655 -0.008454751 -0.0090037985 0.012110797 0.010883777
moscow -0.017271746 -0.0039794124 -0.009101001 -0.0003383334 0.0052684257 0.0045048883 -0.0022141594 -0.013649869 0.00080733973 -0.0029358552 0.01327721 0.0018939506 0.007486831 -0.008670226 -0.01401533 -0.0026484318 -0.0032084195 0.010342275 -0.017448029 0.013082695 -0.014738734 -0.0025861766 0.013404519 -0.018155787 0.0023897993 -0.012400473 -0.016858848 -0.009470777 0.006798461 0.018316051 -0.006388458 0.0041195843 0.005771028 -0.0055989968 -0.016105492 0.0007436709 -0.014042791 0.005161365 -0.011683378 -0.0024568343 -0.009027029 -0.014855638 -0.013023771 -0.019720133 -0.014200409 -0.0084373625 0.008013613 0.0202267
debt -0.0043731066 -0.011370154 -0.014816858 0.0045088734 0.01313157 -0.015718773 -0.011859039 -0.0012591011 0.00013620479 -0.007352435 -0.007559977 0.00903198 0.019775243 -0.0044718194 -0.015108888 -0.0019228162 -0.007176439 0.010000628 -0.021463454 0.018056901 -0.007001281 -0.002538266 0.01927283 -0.015139357 0.020182356 -0.009855151 0.003691066 0.006619969 0.0023607686 -0.00030266133 -0.0031697985 0.020790756 0.01177597 -0.0058056517 0.0010836357 -0.0022935616 0.0008973702 0.006258621 0.0067605604 -0.0047041303 -0.0076405774 -0.007277398 -0.0060556135 -0.02114175 -0.0032185826 -0.0007528793 -0.0033951472 0.006031776
healthy -0.0052747703 -0.011340518 0.0042830957 0.0010383101 0.0024608013 -0.01716434 0.00856832 -0.0059656 0.012989458 -0.0135330465 0.008012108 -0.0018265161 0.020118523 0.004129865 -0.0033760816 -0.0077080512 -0.007377209 0.0036344896 -0.02028504 0.018242123 -0.0116723385 -0.004981359 0.01204267 -0.025545845 -0.0005132636 -0.021209734 -0.016010776 -0.010370292 0.0076800343 0.008361808 0.002074626 0.0030770197 0.0058489256 -0.0021970922 -0.013842597 -0.010995134 0.00065175316 0.0038076995 -0.021196648 -0.016477093 0.0037249995 -0.0054711197 -0.00064836355 -0.01699898 -0.004359681 0.011165378 0.0116107585 0.0077568563
murray -0.0068454896 -0.008899485 -0.013250345 -0.012870494 0.0012311997 -0.0037144138 -0.0015418915 -0.014014326 0.0025994526 0.005490654 -0.0041677924 0.0070937453 0.01991427 -0.018924056 -0.018734775 0.017038606 -0.005578195 0.0076795714 -0.020923844 0.005282904 -0.008526394 0.0048706476 0.004406441 -0.017204786 -0.0011842925 0.0031755564 -0.0010354301 0.0077201556 0.0070706923 0.007234455 0.0071517727 0.020964239 0.0131018255 -0.005861372 0.003967016 -0.0067644087 0.0047640246 0.0062528844 -0.0073136035 0.0024392034 0.0050221956 -0.017824294 -0.00956922 -0.021758145 -0.0058396603 0.0055399654 0.006895142 0.011659613
care -0.0019443886 0.0019775669 -0.00359488 0.0077822795 -0.0065834564 -0.0031285514 0.0017607956 -0.002981771 -0.00769603 -0.016633205 0.009091957 0.0030285066 0.023259884 -0.019218331 -0.012747614 0.009303382 -0.015603919 0.026201231 -0.01483864 0.014197764 -0.012727952 -0.005501772 -0.004851913 -0.018642146 0.0036634193 0.008814395 -0.0069335317 -0.0055602696 0.0050012884 0.0012112819 0.015090417 0.005353737 0.022213956 0.0006197863 -0.0014335092 -0.015769646 -0.0020869032 0.008055704 -0.00981286 0.00086613547 0.008007305 -0.012643223 -0.026758336 -0.01660784 0.0023250796 -0.0045363978 0.016432522 0.006599604
year -0.014019453 -0.0033521813 0.004811982 0.0035435308 0.009986561 -0.011610474 0.0077606193 -0.011738012 -0.006189057 -0.0009573561 0.003990435 0.0053883432 0.014449871 -0.020207964 -0.0018527769 -0.003687219 -0.01073403 0.015977921 -0.0066708 0.018992234 -0.014451829 -0.009634526 0.0033279657 -0.01040102 0.004727799 -0.008137553 0.0020253265 -0.009586025 0.01977269 0.009394284 0.00070220383 0.011410512 0.021260263 0.00030217896 0.0041863406 -0.0112177385 -0.004976563 0.018173978 0.0066957143 -0.003149419 0.007405361 -0.009461559 -0.012856104 -0.026780928 -0.0040656906 0.0044184495 0.0082709 0.008865293
entire 0.0005179105 0.0149409 -0.002405111 0.0028481549 -0.004460607 0.001133149 0.00301489 -0.009952845 0.007975944 -0.006231358 -0.0065322225 -0.0022156911 0.0061890977 -0.008083351 -0.017732011 0.0025779614 -0.010215977 0.01882421 -0.010149566 0.008033667 -0.0048233573 0.007926092 0.019632721 -0.008601432 0.017196918 -0.003126286 -0.0025155277 -0.016428309 0.007040073 -0.007544146 0.019583631 0.0106293745 0.010143174 0.01134252 0.010073335 0.003461623 -0.008878064 0.013655221 0.012320344 0.00046230206 -0.0060572843 -0.02028058 -0.012969748 -0.02457688 -0.0127092255 0.01472221 0.014451355 0.03187533
check -0.002513613 -0.00097063545 0.001356547 0.007107875 -0.000892368 -0.009364086 -0.008583883 0.0082039675 0.006630131 -0.0026929867 0.0008990334 0.007706729 0.008575378 -0.016038382 -0.0051343567 0.006790156 -0.0072602713 0.020847097 -0.0044206595 0.0013702771 0.00041020397 0.0074722227 0.0082776025 -0.007703504 -0.0037728965 0.006607991 -0.009599684 -0.0013432908 0.008998455 -0.0034833616 0.010019595 0.010276684 0.014311811 -0.009110403 0.0040103686 -0.014014314 -0.0033980433 0.013636596 -0.0036937424 0.005849517 0.0070904535 -0.015972968 -0.010688635 -0.018831007 0.00508272 0.00088625134 0.015943196 0.003722399
state -0.002395254 -0.0086999005 0.004161931 -0.002466125 0.007910821 -0.012606324 0.0061794682 -0.009136789 -0.010854277 -0.01323664 -0.00551134 -0.00034915944 0.00917347 -0.01565493 -0.010188172 0.005448458 -0.009287106 0.012222473 -0.014428805 0.020343961 -0.010956468 -0.0030129775 0.009131434 -0.013936823 0.011455911 0.0045364904 0.0020315894 -0.00039266376 0.009413128 0.006205673 0.0060491525 0.015795706 0.026692081 -0.0067342017 0.004429804 -0.005724375 -0.006656982 0.011573414 0.008048392 -0.0033167666 -0.006469763 -0.008917124 -0.00734124 -0.017159194 0.0072740032 -0.0023847723 0.007723436 0.022357864
supreme -0.013438211 0.006170943 0.0055629076 -0.0117173735 -0.003062056 -0.015410809 0.008036071 -0.0050785486 -0.0069881417 -0.0016195666 0.010084807 0.008170216 0.009561346 -0.005458 -0.006918324 0.0046274196 -0.0032399353 0.0057169953 -0.0028568949 0.005534186 0.0025915068 0.005144362 0.010594584 -0.00018560412 0.008664261 -0.006510367 -0.015787294 -0.0017910349 0.020225013 0.010368698 0.016244711 0.008998304 0.022082642 0.00456676 -0.010140465 0.0066595892 -0.002758559 0.014989432 -0.006506627 -0.009598224 0.0036442233 -0.023416253 -0.026984163 -0.005389178 0.0087085515 0.012576505 0.007522134 0.025215935
lt -0.012300704 -0.0040534637 -0.0009686853 -0.007975448 0.014022272 -0.013815435 0.0026601215 -0.010515575 0.00051051774 0.0011232038 0.012053314 0.00978615 0.01889843 -0.0007863204 -0.008618132 0.00016322122 0.004550037 0.026187107 0.0011779949 0.018597418 0.00010024863 -0.0038101398 0.015387884 -0.0175928 0.0077384366 -0.00091977173 -0.00346219 -0.00010944469 0.017378785 -0.006588227 0.0041679246 0.009919307 0.0076115103 -0.008375907 0.0055317115 -0.0016118769 -0.0056499564 0.0076410295 -0.007937005 -0.008630495 0.010118363 0.002932944 -0.00031716886 -0.01345423 -0.007830398 -0.0011141639 0.0017807359 0.0014023283
concussion -0.010886358 -0.00041321228 -0.007695548 0.004747389 0.011847123 -0.018276596 -0.009693978 -0.011085189 -0.0028784992 0.0060963146 -0.0044323513 -0.005990193 0.011375645 -0.01045839 -0.01582127 0.007986367 -0.01626152 0.028931865 -0.01986747 0.018198721 -0.021745399 -0.002425093 0.01847377 -0.010376998 0.010256865 -0.00394995 -0.011969567 0.0027840652 -0.00015659549 -0.0023113214 -0.0033893231 0.014048962 0.01674908 -0.0028648162 -0.013272464 -0.016848816 -0.006948457 0.008783527 0.0019257574 -0.0063289143 0.0034163035 -0.008292506 -0.017507765 -0.02832537 0.0053332215 0.010444241 0.0062258393 0.009727498
hold -0.0074020564 0.013558148 -0.005425587 0.012701404 0.008259713 -7.146868e-05 0.0011424352 0.0011047971 0.007174857 0.003155156 -0.010113039 -0.009972444 0.005928633 -0.002566766 -0.01597168 -0.005940097 -0.016489211 0.009162236 -0.016110644 0.009253634 -0.007575255 -0.0034776777 0.015266327 0.003225577 0.01648869 0.005356753 -0.0046769045 -0.0002756716 0.0053805616 -0.008650207 0.0036310144 0.00657504 0.0060058828 -0.0082504805 0.009400878 0.0062049762 -0.010015719 0.006703966 -0.0083738305 0.0009947341 -0.014364801 -0.026838468 -0.009823508 -0.022983832 -0.00055237184 0.005260441 0.011372628 0.029250512
post 0.0020461334 0.0017771021 -0.006553567 0.0017451552 0.010615116 -0.00028873212 0.0012542637 -0.007845834 -0.0009013673 0.0037724331 -0.0048560756 0.0029273776 0.015232145 -0.007034742 -0.015998097 -0.00054280384 0.0033604656 0.021822855 -0.012318906 0.010446957 -0.008123851 0.00811753 0.010945694 -0.0058876984 0.014022745 0.0063338284 -0.012526402 0.008449341 -0.0033373574 0.006823024 -0.0052944487 0.005432719 0.02360248 0.0066065914 0.00062291423 -0.008077281 0.002877636 0.0027437585 0.0065445863 -0.003711974 -0.008640227 0.0026591024 -0.01092226 -0.020013649 0.0029974112 -0.0005005595 0.010396448 0.0008234882
help -0.004403926 -0.010069823 0.0046843123 -0.01047892 0.005273858 -0.009789903 -0.006295407 0.0007972493 0.0015519045 -0.014305092 0.012546995 0.0001302106 0.015311936 -0.00051157956 0.00075827533 0.0053195427 -0.016244328 0.010063098 -0.006232352 0.0038506545 -0.020030212 0.004472452 0.010489407 -0.007088874 0.009262481 0.0025712978 -0.0030098108 -0.00086718024 0.013674322 0.015364525 0.0007007893 0.015304729 0.009083674 -0.0041509015 0.0013504666 0.005102082 -0.0024416745 0.020596897 -0.005629489 -0.010278975 0.00647017 -0.0020880022 -0.020067004 -0.013861894 0.0004925387 0.009481267 0.011827714 0.012106784
star -0.012251853 -0.0016150908 -0.009826832 -0.0068596187 0.003076721 -0.0023092781 0.0066573066 -0.0048185224 -0.0034808998 0.0010766062 0.005161513 0.009473943 0.013815105 -0.015057853 -0.011348088 0.013670462 -0.005280702 0.016184522 -0.0017624364 0.014363975 0.0003411609 0.0101494035 0.013716501 -0.019126283 0.0087595 -0.0070414464 -0.005104761 -0.0057696938 0.014083746 0.010826588 0.008042052 0.014282621 0.019900931 0.005059111 -0.007950414 -0.0031037773 -0.006456064 0.0075739627 -0.001550134 -0.010769159 -0.010329737 -0.020732153 -0.0016595398 -0.011505686 0.005993318 -0.0046729795 0.0010851709 0.013789895
open -0.005934616 -0.0014511723 0.0009832946 0.00047835565 -0.0029333043 -0.0073659965 0.005868943 -0.008580069 0.004590634 -0.0015152271 0.0081434455 -0.0005922862 0.016175305 -0.013441148 -0.0017304919 0.0034800698 0.000731418 0.012814094 -0.015384747 0.004930269 0.0017586187 -0.011504113 0.012608616 -0.017688127 0.009786359 0.0044862013 -0.013568567 0.0086435275 -0.0034552997 0.015939254 0.011790316 0.0038364236 0.022088448 0.010564279 0.0029475244 0.0041292477 -0.0033431232 0.018938111 -0.011734346 -0.012820063 0.010468379 -0.006289222 -0.0038746474 -0.021459568 -0.0076676607 0.01160275 0.017932162 0.017408978
academy -0.01172511 -0.00064699346 -0.012434185 -0.0057230038 -0.004506449 0.0041328464 -0.012370719 -0.0077100447 0.000732532 -0.0054036025 -0.009733395 0.0120441 0.0027979107 -0.018623376 -0.008141082 -0.0031074747 -0.004664874 0.02906783 -0.009238604 0.0014162558 -0.0010334417 -0.0026173138 -0.0004607271 -0.015464631 0.0056493366 -0.015733914 0.0059137912 -0.012674679 0.017293494 0.007049356 0.015703164 0.013514198 0.027341628 0.0069327275 -0.00093677704 -0.0010226823 -0.007548475 0.0038220738 0.010246019 -0.0033938072 -0.0026185338 -0.008976414 -0.008344503 -0.0058469865 0.009144188 0.01566124 -0.0032477083 0.0059075207
djokovic -0.0020471383 0.004261669 -0.0050719636 0.0012710384 -0.008590925 -0.011539153 -0.00081624876 0.0029003546 -0.004259557 -0.00088833366 0.008733757 -0.0024300844 0.007044934 -0.011036858 -0.013003023 0.011090184 0.0016158626 0.005693406 -0.0076551083 0.00781747 -0.010106353 0.0046941233 0.012989329 -0.0018760684 0.013408767 -0.004958354 -0.01601835 -0.001956105 -0.004098523 0.01121301 -0.0013933417 0.018651346 0.022979593 -0.010808417 -0.007936176 0.0048743244 -0.0078108544 0.00598881 -0.0021103215 -0.00048913335 0.001597293 -0.010516065 -0.02002552 -0.022234341 0.0048331055 -0.0034232277 0.00033718583 0.014245669
egyptian -0.004509602 -0.00015827443 0.0017370554 0.0037669516 0.00954073 -0.006409644 -0.008980354 -0.007995437 0.0008696427 -0.0029176145 -0.0017000539 -0.010752915 0.020963212 -0.011336777 -0.0034910592 0.009234852 -0.00056537247 0.008944794 -0.016523778 0.011356904 -0.008417637 0.0097506475 0.012309931 -0.01364821 -0.005139222 -0.0057676965 -0.0019586042 -0.00617741 0.0018537794 0.0026760905 0.006606038 -0.00065189524 0.024441173 0.00812727 -0.008488751 -2.9980913e-05 -0.0028723145 0.0026875124 0.0024447234 -0.007508612 0.009471395 -0.0137717975 -0.0051994305 -0.011468879 0.0035536033 0.0056415596 0.017997773 0.011870402
ice -0.0020364576 0.0020920169 0.002928081 0.0030084413 0.002717844 -0.009495764 0.004467 0.0008757313 0.007189261 0.0027583172 0.0052010166 0.008309401 0.010913274 0.00019829234 -0.0070333085 -0.0037376336 0.006575129 0.014147643 0.0014244503 0.009159745 -0.0021951296 -0.010387168 0.012053604 0.0008659026 0.0029414855 -0.0048097386 -0.0013630404 0.0040273615 -0.0040535834 0.0031009645 0.0072675184 0.00964963 0.006458621 0.0009839542 -0.009336911 0.0061241584 0.0077234213 0.0017028938 -0.0106816385 -0.005790478 -0.0075721242 -0.016367486 -0.009133074 -0.019965203 -0.005667094 -0.009151726 0.0025375355 0.01206798
bass -0.008960133 3.8638733e-05 0.0035873444 -0.0006533892 0.0041806283 -0.006561099 0.010254872 0.0065517705 -0.00014128334 -0.005959344 0.0021644854 -0.0018718097 0.0072060283 -0.005351649 -0.0021039923 0.005203765 -0.0064984267 0.024239613 -0.010016251 0.015437825 -0.015247745 -0.0054559167 0.00057392666 -0.003632999 0.0032098705 0.0016580677 -0.013488784 -0.010594348 0.009242728 -0.0038064548 0.0016668657 0.008274831 0.018631706 -0.009600032 0.007438884 0.007995388 0.0055292207 0.017826285 0.00077181787 0.0028455365 0.008560474 0.0018453691 -0.0145214 -0.0041967803 0.007860023 -0.007154485 0.015512825 0.009607757
school -0.013493617 -0.004502564 0.00070756464 -0.0067239804 0.00965382 -0.0060623274 -0.0036605606 0.0076780203 -0.005862944 0.00307313 0.0078977095 0.0020141636 0.020767186 -0.009801485 -0.016896214 -0.0015237064 -0.00419778 0.015713485 -0.0059588873 0.0004988987 -0.0057294536 0.0005334894 0.013471757 -0.0057847393 0.010938698 -0.0073798015 0.0004519894 -0.0031549088 0.014104083 0.013289871 0.007459278 0.01077577 0.02434236 -0.0038559989 -0.008951913 -0.012973835 -0.0028752582 0.011580388 -0.0049462304 -0.0019761214 0.002299415 -0.018563671 -0.020399172 -0.01801095 -0.009253222 0.009052894 0.01233139 0.012721671
rite -0.015289834 -0.010063567 -0.010889629 -0.00509665 0.012192544 -0.008933695 -0.0068800165 -0.007517869 0.00914457 -0.0015880081 0.0030968934 0.004313044 0.006525625 -0.015213373 -0.0072715986 -0.0023012941 0.001402556 0.021883285 -0.013774208 0.0029031099 -0.009824452 -0.001530907 0.008743631 0.0031666616 0.011988389 -0.0009428662 -0.0143498145 -0.013691753 0.0033060857 0.011159427 0.0073049166 0.018182384 0.0049110693 -0.012045955 -0.00060621457 0.0054529775 -0.009577811 0.004296146 -0.009172634 -0.0021566562 -0.0077090287 -0.0074642487 -0.016788278 -0.011491476 -0.012772649 0.007826757 -0.000762667 0.017678477
list -0.015841264 0.00744286 0.0055561094 0.004169311 0.0023341055 -0.0018653644 0.0010064018 -0.0013328864 0.00095728564 -0.0013682453 -0.009648934 -0.0035184945 0.0047610323 -0.0130192265 -0.0122415945 0.008564042 0.0058314274 0.019250764 -0.010710974 0.01405174 -0.016927715 -0.0044200583 0.0035097082 0.00051115 -0.0013588378 -0.012302425 -0.0123697175 -0.012127187 0.0050080474 0.011677227 0.007500579 0.01483034 0.009998226 -0.0004935036 0.008861257 0.0013891245 0.0070200427 0.011016482 0.0020243796 0.006900305 -0.0036707302 -0.0095609445 -0.01391842 -0.012291278 -0.010462476 0.007396323 -0.00076700357 0.0036386584
setting -0.012106138 -0.0064370325 -0.0037759456 -0.003216521 -0.00026773868 0.008784846 0.011996595 -0.0038463483 0.0033133116 0.0004145077 -0.0060036327 -0.009832596 0.01831113 -0.0006093525 0.01134856 0.009483431 -0.014628139 0.017915467 -0.008701555 0.0109804105 -0.021154447 0.008157632 0.0029824357 -0.008340973 0.001959642 0.0047676857 0.00080053956 0.0042724963 0.014571275 -0.0008925553 -0.0007179746 -0.0034060243 0.026372537 0.0076837637 0.012183704 -0.0019362837 -0.0030086013 0.008696075 0.0116621265 0.0066553894 0.0042997804 -0.010156661 -0.00078253314 0.001354631 -0.0013763843 -0.0008294216 0.0063247452 0.0027237418
identity -0.01815775 -0.0053765224 -0.014003698 -0.0059703453 -0.0032762657 -0.013017268 -0.008462881 -0.011006484 0.009138869 0.006427615 -0.004095906 0.0012657427 0.008286867 0.0032926262 -0.016903605 0.0033306852 -0.0014250104 0.0035401823 0.0007600698 0.008860155 -0.0016923991 -0.010522534 0.015075907 -0.010645343 -0.000316797 0.011638604 -0.012647458 -0.008665265 0.010231892 0.011521497 0.0020211837 0.003729782 0.014077624 -0.0069998386 0.0038822806 0.003997137 -0.0012356272 0.009950926 -0.008176139 0.0066231694 -0.0035026008 -0.009629927 -0.0029758771 -0.0043453015 -0.012691495 0.0066848556 0.006271226 0.022020495
theft 0.0015002358 0.0020282315 -0.0033374452 0.011724693 -0.009187739 -0.01638959 -0.005817885 -0.0042829243 -0.007240791 0.008118603 -0.0015503507 -0.007851452 0.005306904 0.0029367828 8.6767126e-05 0.017529143 -0.01750267 0.016268728 -0.009569049 3.657176e-06 -0.008812926 -0.010909763 0.0164776 0.0055508628 0.008746722 0.0019064565 -0.005259183 -0.0021961618 0.010662004 -0.0028857524 0.0009081102 0.0107589625 0.0049318015 -0.0053159418 0.0010082122 0.00723417 -0.009223491 0.005990656 -0.0067640524 0.010176654 0.0065010143 -0.018529512 -0.0041663954 -0.01581351 -0.00017021819 0.002681139 0.0029485787 0.014417351
week -0.00022522715 0.002864316 -0.0036244467 0.0031940076 -0.0001577622 -0.01770429 -0.008186434 0.005574828 0.0022580756 -0.0018314687 -0.0019234039 0.0011465878 0.021195177 -0.012923944 -0.0035478305 0.014599418 -0.008368919 0.018222993 -0.012544627 0.009164767 -0.018658873 0.00028747704 0.012772198 -0.009233583 0.012653204 0.0021281797 -0.0010605354 -0.011680959 0.015204301 0.007864886 0.016929504 0.00037808294 0.017047739 -0.008897591 -0.012760105 0.005643773 0.0071325134 0.020076344 -0.009638921 -0.0111272475 -0.001417151 -0.002709998 -0.0028056449 -0.024715386 0.006761407 0.005343609 0.0058556036 0.011007347
portman 0.0040633767 -0.002239468 -0.01357335 -0.0012223716 0.012220797 -0.0051758885 -0.005705265 -0.013506722 -0.00589765 -0.009039083 -0.004329297 -0.007049471 0.01132727 -0.0060898196 0.0008900903 -0.004863183 0.0021776059 0.026437894 -0.013977666 0.020011917 -0.021346772 -0.010497805 0.013733953 -0.0072975853 0.0066832183 0.002200289 -0.000165789 -0.015288995 0.012712315 0.0034946878 0.0006588344 0.0021129127 0.030804042 0.0013176057 -0.007991198 -0.0008284267 -0.0053823213 0.005962434 -0.011592077 -0.011565436 -0.0057902695 -0.013785636 -0.0026860973 -0.027595019 0.009509941 -0.008610959 -0.0017834526 0.020122165
wine -0.0093127 0.013637415 -0.008511535 0.0069272094 -0.005545775 -0.0128140105 -0.003123518 -0.013155334 0.003031257 -0.010063956 -0.005510246 -0.008228115 -0.0015490648 -0.0074343896 -0.0044389484 -0.00043013567 0.0025322204 0.0056010038 -0.0107177375 -0.006729216 0.00061944977 -0.008019355 0.0122971 0.003525997 0.017707897 -0.012295274 -0.0027848033 -0.0016359994 -0.0022406252 0.00632981 0.0064701675 0.0006147118 0.013526889 0.009419558 -0.007075036 -0.00623202 0.0010530124 0.0009664963 0.0021935082 0.008319533 -0.009979912 -0.019860521 -0.013639216 -0.0073112934 -0.0039961305 0.013711403 0.017151486 0.02013191
trenta -0.01404313 -0.0022830968 0.0015916715 -0.00068907306 0.00013775866 -0.0150659615 0.00875094 -0.0026474216 -0.009099633 0.0008094034 0.005823154 0.0060485224 0.00799881 -0.0060228454 -0.018327285 0.013316182 -0.015317013 0.0025886954 -0.013517991 -0.0014033647 -0.012464835 0.0030468516 0.0035916814 0.0048562675 0.004846555 -0.013888849 -0.004552526 0.007527619 0.005617473 -0.008161289 0.01846603 0.015674578 0.009489128 0.010713173 -0.010317712 0.00039480953 0.00742682 0.017029189 0.005873534 -0.004985396 0.0028780927 -0.011197161 -0.01862828 -0.022289395 -0.010249761 0.0007399816 0.019704718 0.025493423
immigration 0.002392765 -0.008175629 -0.0069266646 -0.0098362835 0.009666535 0.0049464596 -0.0056310883 -0.006499093 0.0054700524 -0.010502393 -0.004049341 0.009561414 0.018527772 -0.0018498508 0.002001597 0.011589424 0.0039861207 0.004194016 -0.0113171805 0.007065115 -0.016663589 0.009855962 0.016672317 -0.010057582 0.009532436 -0.0109780915 -0.0044064727 -0.0028447262 0.005354525 0.0024125988 -0.004448672 0.009515289 0.012424161 0.0011299197 -0.010053339 0.00011906058 -0.0054694423 0.019539133 -0.0106819635 -0.0011581661 -0.0075198244 -0.014284977 -0.016586965 -0.015567772 -0.0043675224 -0.0040385225 0.0028084582 0.0016674069
lead -0.00066533615 -0.0069253687 -0.0075596613 -0.00873123 -0.004991121 -0.013991009 -0.010056358 -0.0018111862 0.008612046 -0.007669579 -0.0032345576 -0.0055491193 0.018713845 0.0012118884 0.004227188 0.013686462 -0.009970065 0.023488166 0.0021771195 0.00086395146 -0.008444146 -0.005316886 -0.0019908224 0.0030357826 -0.0060525415 -0.007568447 -0.0005712844 -0.0044095595 0.015811473 0.008221913 0.0147296805 0.007837165 0.021957595 0.0018040364 -0.0070627187 0.007846104 0.0019919008 0.020276485 0.015363948 -0.003643384 -0.007169079 0.0029533019 0.0053599654 -0.022075638 0.0015394404 0.0038800957 0.008209015 0.00099152
stock 0.0025493202 -0.0011041091 -0.012053908 0.0075897723 -0.003489224 -0.0048127337 0.011456937 -0.0029290717 -0.0058911 -0.008101555 -0.0013679441 -0.010020803 0.01166127 -0.0048206416 -0.012071949 0.013696797 -0.013862612 0.0119664995 -0.020435717 0.017391158 -0.0130519075 0.0012941296 0.0015652857 -0.0013698611 0.0096213 -0.0033671637 -0.0050520026 -0.0059576673 0.015865084 0.0020921638 0.012671877 0.0014421211 0.015961794 -0.0072058705 0.007994827 0.0024608541 -0.005636842 0.016920486 -0.0074854256 0.004089031 0.006983876 -0.012375531 -0.007654248 -0.013156744 -0.012284468 0.0040441714 0.013854981 0.00340187
tsa -0.0073758117 0.0045212205 -0.003707813 0.002433148 0.009641303 -0.012332121 0.0033963714 -0.0029061446 -0.004344805 0.0050297864 0.008641172 -0.008382991 0.0025581482 -0.0041155973 -0.016936116 0.004655332 -0.008302268 0.0075741545 -0.0043153376 0.01414645 -0.011666571 0.0059974957 -0.00061362906 -0.011077531 0.0045970296 0.0064226515 -0.0015960748 0.004946715 0.007856951 0.0034523061 9.501951e-05 0.008689303 0.012320807 -0.003667167 -0.0059651085 -0.0037894407 -0.009224093 0.008740079 0.009036244 -0.012023627 0.0024785965 -0.014775966 -0.017259952 -0.015811576 -0.012923009 0.0050788345 0.001661547 0.013584591
volkswagen 0.003176 0.00029773463 -0.009574786 -0.006099632 0.008950973 -0.0037353265 0.005555372 -0.009313559 -0.00015955519 0.00019219714 -0.007873666 -0.006528036 0.0038580894 -0.009600113 -0.00043803395 0.005611267 -0.0054348283 0.0041824426 -0.0021762105 0.0032704035 -0.0109619945 0.006813946 0.008239706 -0.012586842 0.011658576 -0.00414985 -0.004743185 -0.0052285264 -0.0033740604 -0.007319042 -0.0064037484 0.00019934139 0.0027206691 -0.008541017 0.008231341 -0.0046420307 -0.0058134925 -0.004579363 0.0001887673 0.0046009393 0.008286982 -0.011759306 -0.011795112 -0.011145825 -0.00046180436 0.008343066 -0.00085772 0.00076689466
security -0.014032102 0.006715185 0.00091950723 0.008480912 -0.0003197015 -0.00088845834 0.004056249 -0.0045564114 0.00050697615 0.005348646 -0.0022118979 -0.0016405955 0.019709611 -0.014975205 -0.008475531 -0.0050799265 -0.00075762556 0.015094352 0.0038972725 0.0148336245 -0.0019010301 -0.009433181 -8.4895495e-05 -0.00032754056 0.0137178395 0.009122607 -0.0032122566 0.004786216 0.004513017 0.0058923806 -0.004335426 0.00944911 0.014671002 0.007877027 -0.009091106 -0.003919744 0.006651428 0.0127349775 0.0065059722 -0.008628423 0.008647294 -0.014018231 -0.01269472 -0.0034092567 -0.010345088 0.006802351 0.0041200444 0.005228286
black 0.0016325872 -0.0065295435 0.0030147943 -0.002278095 0.010193208 0.0019850344 0.008288486 -0.011467556 -0.00771979 0.0010144043 0.009280348 -0.0080687795 0.021753961 -0.016724333 -0.00045980274 0.014244556 0.0036174937 0.01603705 -0.013443858 -0.0013193042 -0.010317617 -0.005917074 0.010555935 0.0010013775 0.0059505473 -0.013745025 -0.013111503 -0.010107571 -0.0022959174 0.008657787 -0.0018911656 -0.0005639387 0.016355325 -0.008092125 0.0060020257 -0.011831999 0.008305103 0.0059055793 -0.011100462 -0.009199595 0.0028517216 -0.013369065 -0.0153540755 -0.002770953 0.006845278 0.009851963 0.014953447 0.0005744626
bottle -0.008777525 0.01462681 -0.00040729548 -0.003936907 0.012850086 -0.013606803 -0.009126018 -0.0063158395 -0.0014104112 0.010114537 -0.0065895966 0.003542107 0.01366568 -0.0021013967 -0.005920478 0.0050416295 0.00028505299 -0.0013953574 -0.007494603 -0.006374145 0.005155313 -0.0007596515 -0.0016218834 0.0043559917 0.0091269305 -0.0038134265 -0.003985275 -0.0145980315 0.0043188483 -0.013868021 0.006763841 -0.0025337914 0.018766526 -0.006990257 -0.0057066376 -0.006558666 -0.006156279 -0.0031007433 0.0024350393 0.009962623 -0.009649059 -0.016672954 -0.0050042765 -0.022859814 -0.00513094 -0.0033937423 0.01767697 0.008899237
sag -0.0038414595 -0.0018639445 -0.004345169 -0.006761626 0.0050057326 -0.0010762928 0.00065920653 0.00017143793 -0.0060321013 -0.010125543 0.0062524322 0.0093934415 0.00142548 -0.01284927 0.0007307193 0.011681747 -0.0065011443 0.024441017 -0.0077651823 -0.0035168696 -0.004690219 -0.0079784235 -0.0017145934 0.0016006758 0.0032177279 -0.0141227385 -0.010116934 -0.014159066 -0.0029746862 0.008587726 0.013916996 -0.0011268388 0.021154605 0.0042740596 -0.010726224 0.0063371407 -0.012690735 0.020520687 0.0008708006 0.0023906198 0.0040762615 0.0014742004 -0.011490555 -0.0040202495 -0.0026545224 -1.5759259e-05 0.009254972 0.0011039196
cairo -0.010545766 0.0067629637 -0.0060683424 0.0023741324 -0.0058216425 -0.011435521 -0.0035287146 -0.008926888 0.00817553 0.0020588308 0.0011038433 -0.0087256655 0.007984162 -0.0114377765 0.00046035365 -0.002721135 -0.010712303 0.024304993 -0.0062882677 0.011055455 -0.00090213335 -0.004798256 0.0053495113 -0.00785055 0.0073349336 -0.0033417149 -0.016601633 -0.0016417856 0.013695359 0.008256669 8.98505e-05 0.009887459 0.012444673 -0.0015627543 -0.009322059 -0.0129726855 0.008480347 0.022904977 -0.006546673 0.0027157885 -0.005638007 -0.018360546 -0.0109533705 -0.020361315 -0.012816104 0.00095816073 0.013537594 0.019255701
emanuel -0.016643621 0.0038003635 -0.0088555245 -0.0014639087 -0.0031303968 -0.007935988 0.0044891224 0.008518532 0.0047174194 0.010236506 0.0037858973 0.016885672 0.013514399 0.0044304794 -0.0010421982 0.01095619 -0.014883688 0.0043735127 0.004040714 0.01450486 0.004054773 -0.01367334 0.0073298113 -0.0052349893 0.0053691 0.0027915835 0.0028164396 0.004896137 0.009582315 0.00025110622 -0.0019546421 0.01594094 0.024775628 0.0035912837 -0.0043871235 0.00697797 -0.0053093075 0.004278177 0.003432268 0.0049067335 -0.007005845 -0.012607844 -0.025316093 -0.017908668 -0.0027742859 -0.0023498137 -0.0052390825 0.020336945
youtube 0.0014757337 -0.004325896 -0.006924266 -0.008532393 0.009773535 -0.011186458 -0.008189867 -0.00921834 -0.0049845814 -0.0014017519 0.0039303633 -0.0057184715 0.009749038 -0.014499568 -0.008426095 0.011423216 -0.0005630078 0.009679677 -0.016097156 0.0099318735 -0.016044931 0.0033804192 0.00027257582 -0.0146281095 0.0064318986 0.008699813 -0.0008013873 -0.0077502914 0.0032166569 0.0035712672 0.011643897 -0.00580437 0.015902298 0.00078672735 0.008411559 0.0017576279 -0.00869423 0.008861809 -0.0053090993 -0.002982955 -0.0032861365 -0.005186557 -0.015424973 -0.007545719 -0.0014448098 0.00040126656 0.0110451775 0.009215533
pepsi -0.008994738 -0.0020757949 0.009590759 0.0007195907 0.008919673 0.0012276414 -0.00809912 -0.010302027 0.0013650749 -0.013225924 0.005444664 -0.010374781 0.005781791 -0.014644602 -0.002045242 -0.0042713764 0.003548172 0.0114699 -0.005975632 0.014645896 8.41333e-05 0.0047482783 0.01635369 -0.0066487426 0.011459235 -0.0054134405 -0.01032251 0.0016119663 0.01305211 -0.0062942714 0.007285734 0.011189383 0.022904616 0.0011456227 0.003077766 -0.012982326 -0.01167684 0.0153665515 -0.0038715985 0.0061741997 -0.00096487446 -0.016132355 -0.0060822098 -0.017553763 -0.006511845 -0.0047035334 0.006101231 0.010366765
rahm -0.012170969 0.009343563 -0.00447199 0.0010058371 0.008595954 0.0011461419 0.006134147 -0.011027558 0.0053369584 5.873233e-05 -0.00096339924 0.009515335 0.0031131946 -0.0034116893 -0.006893183 0.01079649 -0.0077019897 0.0076237377 -0.013550072 -0.0007324895 0.0023355323 -0.005595845 0.009530171 -0.017941583 0.003974622 0.004727738 0.004885271 0.0069576553 0.017907578 0.0034160588 0.016200958 0.006567757 0.027304415 0.012217523 -0.002737597 0.007337641 0.005946605 0.0028440217 -0.001817805 -0.0059436606 0.004925658 -0.021025028 -0.013328131 -0.0066233985 0.0032707637 0.012248876 0.0041296068 0.021276752
starbucks -0.012777605 0.009735673 -0.008312814 0.010777288 0.0031799525 0.0006489013 0.002850522 -0.0046323817 -0.0055194926 0.000948528 -0.010788669 0.008997992 0.0068967184 -0.0137734525 -0.013025907 0.005551517 -0.016134812 0.014609036 -0.002057411 0.008670438 -0.002977073 -0.0054947245 0.015212056 -0.011525919 0.014391545 0.000551228 -0.0015149612 -0.01103047 0.005983681 -0.0075038257 0.0030338974 0.00013068275 0.015279724 0.011825165 0.004288022 0.0041282494 -0.008806921 -0.001888303 0.004599271 0.00041429175 -0.003358319 -0.01638487 -0.0012689161 -0.023271067 0.0041270824 0.009827177 0.00017887594 0.019336903
job 0.0050784876 0.0020771127 -0.012178743 -0.0032189859 -0.007672139 0.0038231888 0.008317657 -0.009192012 -0.001818711 -0.0005277231 -0.0010726476 -0.0068029994 0.0042200363 -0.014566882 -0.018399768 0.00078673044 0.0008872226 0.0053314674 -0.012339031 0.008881683 -0.018060472 -0.0037304484 0.014325648 -0.007969846 0.014556583 0.0068827504 -0.0010705661 0.0062784087 0.011911675 -0.0050890036 0.015418356 0.002062639 0.020650957 -0.0073548476 0.002031856 0.0001992047 0.007897808 0.0044337683 -0.011232626 -0.0074142176 -0.0050508096 -0.005960913 -0.016062934 -0.00520432 0.0025680196 0.008882595 -0.0017411404 0.0034775955
great -0.012729177 -0.0006976181 -0.00249461 -0.0059778155 0.008895834 -0.005829167 0.004298894 0.004132003 0.0039039108 0.0052583325 0.008909448 0.0028611606 0.0034531136 -0.011098408 0.0021480334 -0.0074793063 -0.002723857 0.002547095 -0.009957389 0.017328832 -0.011914375 -0.0032315687 0.004982738 0.002173009 0.005197633 -0.003629373 0.0055829375 -0.0041508977 0.0094384095 0.0021043734 0.0045940056 -0.0006639565 0.009863013 0.0071078157 0.00799702 0.0040489803 0.0057569994 0.010457082 0.00580455 0.007514737 0.0004921658 -0.004482331 -0.004754615 -0.0036950521 -0.008390759 -0.0028071795 0.003548055 -0.000958816
driving -0.0033047758 -0.008320582 -0.0025374952 -0.0070246174 0.0070489743 0.0043467674 0.01187317 -0.0038775192 -0.008524699 0.0016152287 -0.008093694 -0.0008581874 0.0210036 -0.015808644 -0.009955111 -0.007017377 0.0010119067 0.008791498 0.00044973905 0.00069749734 -0.004409592 -0.008694862 0.0070826854 -0.008568394 0.0026726604 0.0032174697 0.004798303 -0.010073317 -0.00062294386 0.012918079 0.012753877 0.005624752 0.017782768 0.0066707954 0.008566267 -0.004960397 0.0034225546 0.015725737 0.0030982583 -0.0038203138 -0.0017325433 0.0031676511 -0.0026971516 -0.013327313 -0.010633361 0.0013031865 0.006087824 0.0074894973
pirate -0.015468231 -0.0054389164 -0.00940531 0.006250593 0.005904783 -0.0044483286 0.009961891 0.0021195668 0.009822197 -0.00868122 -0.00165811 0.010046291 0.0070651793 -0.019050611 -0.0037385614 -0.0028124992 -0.0075060055 0.022208503 -0.00578797 0.011827078 -0.012406238 -0.007875579 0.014453266 -0.011507711 -0.005291173 -0.0060660755 0.0021293254 0.0074205287 0.008576823 0.0066115526 0.013471678 0.0017535618 0.014389229 0.008307358 -0.0017958779 -0.0070645385 -0.008661747 0.0033431998 -0.010828819 -0.008488111 0.00514086 -0.0027846266 -0.0027909637 -0.014454534 0.002421322 0.0053293747 0.0135280015 0.017676987
gt -0.012611501 -0.010618687 -0.0043390547 -0.00033909487 0.0011433751 -0.015835524 0.007977167 -0.005783577 -0.010174479 -0.010281332 0.00031820303 -0.0036112382 0.019831773 -0.0019731992 -0.009700176 0.0047545135 0.00082606554 0.016301626 -0.0045186565 0.00084828696 -0.00080120226 0.0063367574 0.0014517332 -0.0056951013 0.006953655 0.0002949248 -0.011959859 0.0065077455 0.015681159 0.007433837 -0.0020536557 0.010106071 0.014004686 -0.011253629 -0.0058850576 -0.001939931 0.00068384176 0.007976716 -0.010105868 0.004465973 0.007716407 0.004309934 -0.01632488 -0.013228668 0.00875892 0.008097519 0.0058969017 -0.0022165468
australian -0.0051073376 -0.0037566854 -0.002329637 0.0010469742 -0.009152345 0.003303555 0.012297305 -0.0010417382 -0.0040001813 0.008419174 -0.0006177457 0.0059972038 0.00786173 -0.006431853 -0.013310833 0.013512467 -0.0048375367 0.010912137 -0.0010542499 0.016788272 -0.0056317835 -0.0071371174 0.007040239 0.0011768354 0.0001255223 0.0038201269 -0.0049171364 -0.007303498 -0.0038249043 -0.0029737023 0.01606434 0.0005119478 0.013790214 -0.007867905 -0.004638443 -0.0091059785 -0.0051150345 0.019883396 0.0035613193 -0.0075539253 -0.0027987394 -0.008866127 -0.015415733 -0.0064954166 0.001035798 -0.00838313 0.005281452 0.0022531503
cost -0.014475182 0.009352342 -0.0084108785 0.004214193 0.005013863 -0.01616419 0.0027824056 -0.008921666 0.004529202 -0.004650135 0.008013245 0.0007974992 0.0020105166 0.003013923 -0.0050760526 0.011170826 -0.0118518965 0.013629463 0.001430753 0.008961696 -0.015757019 -0.0033853652 0.012886803 -0.0045363503 0.014172883 0.0049015484 -0.0109134 0.0026693065 0.015582931 0.0039997865 0.009725436 0.009524603 0.009618088 0.0006087463 0.0035516878 -0.013382118 0.0055158525 0.013310499 -0.012721144 -0.001155328 0.0034621877 -0.012322564 -0.012131261 -0.0047938186 0.0036897862 0.009949685 0.001280391 0.021142619
blog 0.0043043843 -0.009156589 -0.010852425 0.0065162443 -0.0042781867 -0.00023469255 -0.0072875754 0.004707122 0.005757663 -0.012542308 0.007103893 -0.00340306 0.0015485025 -0.007364662 0.001998804 0.013011975 -0.013992839 0.0033662117 -0.008748312 0.00043676482 -0.015683448 -0.0077645294 0.0009859997 -0.017513717 0.0031660793 0.0061593996 -0.013510975 -0.00460952 0.010495191 0.0063027255 0.006489341 0.002454932 0.015367161 -0.00069529674 -0.0033442967 -0.009941866 6.828545e-05 0.0077215414 -0.007748295 -0.0023981014 -0.010513827 -0.007156376 -0.012851314 -0.01285388 -0.00019414884 -0.005873437 0.00077320356 0.0065967212
federal -0.009488233 0.0045311525 -0.012936269 0.0062355213 -0.0061310977 -0.009747992 -0.0071823 0.009727057 -0.0001891082 -0.01068845 -0.0069569023 0.00753153 0.012408695 -0.015125305 -0.002404365 -0.0030646475 -0.0022792127 0.016387464 -0.01453573 0.0007051417 -0.013823872 -0.0041526486 0.009287186 -0.0035022954 -0.0057525807 0.0040452587 0.008038809 -0.010749625 0.015137265 0.006074246 0.012955813 0.0018040664 0.007929741 0.005887851 -0.0012118364 -0.016798265 0.01209612 0.00040127552 -0.005974008 0.004299948 0.010439463 -0.008066882 -0.0030827927 -0.011348377 0.0029306882 0.009772499 -0.0073019206 0.01336905
program -0.009218494 -0.00091714406 -0.0073985923 0.0004789958 -0.006385411 -0.007431045 0.006153117 -0.008631866 0.0052028038 -0.00466958 0.004183015 -0.007898239 0.019953277 -0.010601207 0.0033235427 0.0131289475 -0.0039503295 0.010305535 0.00053893955 0.015300522 -0.010246049 -0.0038776833 0.002435433 -0.014278321 0.0014781837 0.0053883493 -0.013924312 -0.0006318636 0.012633292 0.007872701 0.0059709395 0.01726977 0.013361608 -0.00811624 -7.8805206e-05 -0.0068512987 0.0051512117 0.021345908 -0.0042509083 -0.010128607 0.0068723164 -0.020696163 -0.0069817468 -0.015402731 0.0055733724 -0.0038871076 0.004873471 0.003330018
museum -0.016822416 -0.012013365 -0.0060274806 0.0008467407 -0.010502356 -0.006642623 -0.008175123 -0.008157489 0.0033946137 0.0021825978 -0.0015436254 0.009573081 0.0025405383 -0.013508139 -0.013095408 0.00808261 0.0021071348 0.020422608 -0.014084892 0.006479246 0.00058269186 0.007985671 0.015286274 -0.0035432093 0.0019373475 0.0007618495 0.0040963804 -0.00031194979 0.01160151 -0.0055015287 0.011623983 0.011920615 0.021280792 0.008888626 0.0022535434 0.0013187092 -0.00081324845 0.008561927 0.004101965 -0.0002449996 -0.009541272 0.0011062083 -0.01713107 -0.023514645 0.004864576 0.008812812 0.007385972 0.0011538573
free -0.011805678 0.0047214204 -0.0104226 -0.005426322 -0.007913919 -0.015760012 -0.006299276 -0.0022841145 0.010374596 -0.012870591 -4.3123495e-05 0.008531007 0.015885575 -0.00094246806 -0.0040355017 0.0044218823 -0.0019731568 0.023247153 -0.013109525 0.017109899 -0.0046736673 -0.0021955578 0.010509487 -0.0008952898 0.00064244634 -0.013534666 -0.007450983 -0.01043364 0.0042984323 0.011078676 -0.0016628485 0.002864947 0.024594186 -0.004061229 -0.010975857 4.930928e-05 -0.001788519 0.0058490406 -0.0059990156 -0.0026299746 0.0023536212 -0.0011564358 -0.016905554 -0.016565852 0.008209196 0.010316792 0.010839121 0.0076787616
kardashian -0.0071405093 0.0014297245 -0.0054003396 -0.0066832006 0.00018319435 0.0013183892 -0.010558569 -0.008926894 0.003303777 0.0026006955 0.007214211 -0.0014245063 0.016994607 0.005345628 -0.010291496 -0.0019151531 -0.006650071 0.005509847 -0.008142457 0.015781866 -0.005793736 0.009812801 0.008128884 -0.01608916 -0.0004624279 -0.009495573 -0.0066588856 -0.0030483543 0.0031317119 -0.007576793 0.010815363 -0.004089783 0.012622351 -0.008025673 0.007832667 0.0065020346 -0.007880034 0.014156425 -0.0050338344 -0.0023947181 0.0052215266 0.0004752368 0.0028145483 -0.004061232 -0.0060784575 -0.0055177296 -0.004613962 0.015305935
sport -0.0024344698 -0.006546482 0.0007975322 -0.0041796486 0.0038874042 -0.013410957 -0.0056407466 0.006326906 -0.008641245 -0.0008342635 0.0006530877 -0.008850936 0.018876934 -0.0026095693 -0.0059976634 0.0074763848 -0.00751452 0.00888227 -0.011731248 0.012813131 -0.0141984355 -0.01077019 0.0054195165 -0.006340476 -0.002447229 -0.01407493 -0.0061928625 -0.0062022153 0.015287061 0.00045763 0.010329833 0.003064657 0.014119985 0.005894081 -0.0039926628 -0.0057037664 -0.0026364801 0.0009044933 -0.010087366 0.004789165 -0.011524043 -0.00014042715 -0.00802731 -0.018349914 -0.01202703 0.0033668291 0.0056420895 0.0099930875
user -0.0147828935 -0.01139476 -0.00032508196 0.0011640895 0.010892372 0.008817443 -0.009480579 -0.003768851 0.01202481 -0.0019877981 0.013615303 -0.009565528 0.016507288 -0.001115329 0.0078108567 -0.0077079693 0.0031804536 0.01297037 -0.008423046 0.0070607793 -0.017128443 -0.008258976 -0.002038172 0.0069239107 0.00021796003 0.0069252397 0.0045419564 0.003112564 0.01557842 -0.001033897 0.0019428686 0.012910595 0.008872178 0.0052499603 0.0011937327 0.008340508 -0.004901648 0.00013439529 0.009572083 -0.012508715 0.010854612 -0.017625041 -0.010649222 -0.0149143655 0.0061706156 -0.00683356 0.005728122 0.0013246135
yemeni 0.0041466607 -0.00061919016 0.0018165944 0.00075318344 -0.0021224467 -0.007536077 0.0049636797 0.0046933554 -0.009115761 0.0019748737 0.009617574 0.008722981 0.0205029 -0.0054531926 2.5100566e-05 -0.006107752 0.003819875 0.020505877 0.0040087695 0.0005425832 -0.0056656105 -0.0070983316 0.015722284 -0.0010246872 -4.4174467e-05 0.003056514 -0.012731127 -0.005124791 -0.0015913703 0.009329133 -0.0052659153 0.0069154818 0.012762062 -0.0004031535 -0.01093706 -0.01112237 -0.0065674423 0.011199495 0.0020066823 -0.0053384723 -0.0012199268 -0.010683036 -0.020751547 -0.0010644641 -0.008958066 0.00040155105 0.0016282917 -0.0025860493
festival 0.0046103965 0.0071946923 -0.010094067 0.008160243 -0.0015382421 -0.015127922 -0.013119593 -0.0039226613 0.0054013315 0.006586406 0.009879392 0.0021879226 0.013282471 -0.0014806153 -0.0099928975 0.0038511467 -0.004269847 0.010800025 -0.014690422 0.01430141 -0.012140889 0.0031578897 0.015556118 -0.007624284 -6.915735e-05 0.0022574407 -0.008828844 -0.010563661 0.010530536 0.005540778 -0.007614577 -0.002647677 0.01329549 0.0062856507 0.0077005597 -0.001967661 0.0020423674 -0.0010864097 0.008279576 -0.013678408 -0.011349607 -0.018144602 -0.00041516378 -0.014513587 0.00984819 -0.008733026 0.0004658688 0.002237774
government -0.006602815 -0.009040411 0.006793323 0.008606127 0.009854371 -0.0015319879 0.0043673585 -0.0027285847 0.0037416182 -0.008777209 0.00797196 -0.006148736 0.01801185 -0.012247072 -0.0030801212 0.013398998 -0.0052476334 0.006568185 0.0052327956 0.0065819393 -0.013188246 0.0078383805 -0.0041765524 -0.013115747 0.011675509 -0.0007074385 -0.0047493516 0.008120825 0.009617533 0.009061451 0.010361767 0.016129721 0.0035832843 0.008019837 0.007028405 -0.010383767 -0.003151521 0.009367415 0.0018033183 0.006082902 -0.00019211092 -0.008213726 -0.008286926 -0.011451925 -0.0053917128 -0.005931262 0.0061030383 0.011338697
white -0.00543426 -0.0051872563 0.0050686225 -0.010421137 0.0036211307 0.005121079 0.008395673 0.006674834 -0.0036422475 0.00036988265 0.0055422136 0.010292576 0.0027917682 0.0006261342 -0.0054250406 0.0064145667 2.2820372e-05 0.018850455 -0.004298408 0.011466778 -0.0046622623 0.0023137883 0.010507768 0.002503424 -0.005109967 -0.00229138 -0.0065275496 -0.0012058092 0.0079114 -0.0063320813 0.010895862 0.0045784507 0.002683971 0.002334329 0.006809946 0.0020677077 -0.010453463 0.0071688197 -0.005881817 0.005833473 -0.004841562 -0.005026784 -0.0176847 -0.0052937116 0.0033728466 0.008855339 0.0012511436 0.006612814
food -0.009558528 -0.0002575001 -0.004242347 -0.0012320696 0.0090263 -0.0010875465 -0.008701592 -0.008861447 -0.007854008 0.00026331045 0.008729939 -0.0021603676 0.019213755 -0.0051753046 -0.009775868 -0.0030763482 0.0042710635 0.02126857 -0.013696155 0.0051965364 -0.007189874 -0.0009179814 0.0037140413 -0.015602713 0.0037231697 -0.004367129 -0.015113989 -0.01176501 -0.0041597267 -0.0044164723 0.013949074 0.006298368 0.013620884 -0.006110041 -0.004249733 0.0060209874 -0.0025105663 -0.0029952729 0.00021557005 0.008406209 -0.009078051 -0.012480946 -0.007617423 -0.017930867 -0.0070370226 -0.008647649 0.0025039355 0.007450108
big 0.0055892514 0.009257132 -0.0051335017 -0.008686075 0.010311943 0.00036668166 0.008571483 -0.0024818133 -0.003974015 8.936174e-05 -0.00071037636 7.830908e-05 0.0062905014 -0.01575396 0.0027189706 0.00040101405 -0.014142231 0.010844449 -0.015621504 -0.0011707856 -0.0024069278 0.0066719 0.00456014 -0.016347775 0.0067037484 -0.008652599 -0.0084298 0.0071871984 -0.003556855 -0.0014837928 0.006783749 0.0037344103 0.009048953 0.0084189 0.0043097967 -0.0060363337 -0.008986742 0.016360994 -0.011675661 0.00063435396 -0.005150289 0.0027335982 -0.018074825 -0.012637637 0.0023305577 -0.0076479255 0.0005662396 0.009604705
aid -0.003339567 -0.007544716 -0.003895271 0.00051179185 0.010467487 -0.0026125177 0.007207237 0.007557532 -0.0054454487 -0.011662248 0.008497566 0.0048703877 0.010823359 -0.0043784506 -0.009802115 0.009580048 -0.0069850762 0.025256855 -0.017647048 -0.0009980819 -0.0057582436 -0.0036957497 0.0014002131 -0.0040518567 -0.00077498873 0.0034256503 -0.0027144826 -0.0036449656 0.008530524 -0.0058302097 -0.0005138084 0.019044539 0.005867109 0.0004923406 -0.0036797938 -0.013987601 0.009221931 0.01492762 0.0063908505 0.0052694334 0.0063211517 -0.014896823 -0.011146556 -0.021830868 0.0022776783 -0.005171747 0.0068250243 0.0127405375
lawsuit 0.0012662297 0.009259702 0.0023401214 -0.0017517768 0.0044332873 -0.002900625 0.0014447387 -0.0038363393 0.0048819785 0.007319507 0.00102169 0.0016772567 0.0080637885 -0.010936244 -0.010735194 0.0044354056 -0.0012011286 0.015419248 -0.007557461 0.007967537 -0.009390481 -0.010867627 0.0072108996 0.0024809546 0.00880468 -0.00016817755 -0.012345699 -0.0022524022 0.009839814 0.0027965505 -0.0031196044 0.016669704 0.010294151 0.0077115605 0.010247588 -0.012417539 -0.0013140755 0.0032048037 0.0059414515 0.0042194594 -0.006400788 -0.0020614178 -0.008218043 -0.0038210857 -0.010430492 0.0023015866 0.012867379 0.016997218
start -0.014232932 -0.008712325 4.100405e-05 -0.009994265 0.011583204 -0.0075691887 0.007797965 -0.0018278355 0.0063424124 -0.010930287 -0.0027027014 -0.010805923 0.016405031 6.6189416e-05 0.00035939133 0.012670569 -0.00970371 0.019115984 -0.01063007 0.015734185 -0.012173488 0.0075192614 0.0003834027 -0.009083955 -0.0009777833 0.0073208036 -0.008430568 -0.0030692131 0.010271369 0.0019544866 -0.006762641 -0.0029565939 0.011750606 -0.003069681 -0.008963347 -0.0101494705 -0.0071462896 0.014225777 -0.010139321 0.0011002728 -0.0069453563 -0.00586205 0.002012931 -0.0035185455 0.00828007 -0.00021388824 -3.981761e-05 0.0019764283
won -0.006902462 -0.005460153 -0.003173011 -0.0060687982 -0.0016572907 -0.0039243703 0.00073911477 -0.008050164 -0.0067538996 0.0073471614 0.0022964843 0.009344898 0.018787056 -0.0016546566 -0.015757233 0.0044507273 0.001959645 0.00768625 0.00032681559 0.0074934904 -0.01678893 -0.0049745813 0.016700167 -0.013007745 0.010890179 -0.00050675636 -0.0009466384 0.0019211727 0.012736144 -0.003552622 0.012144359 -0.0030209455 0.011269178 -0.0012054238 -0.003258071 0.0075512594 0.008241764 0.01286335 -0.004004626 0.0046320115 -0.0067237066 -0.0072843023 -0.0072265114 -0.00060391304 -0.010099155 0.001106074 -0.0018615075 0.0039422456
cnn 0.0014207416 0.0010605315 0.0047873906 0.0069889883 0.00425381 0.0031596683 -0.0014398091 -0.006184786 0.006473654 0.0056086616 0.0071512586 -0.0025536525 0.0004771586 -0.0016712615 -0.0030766733 0.0107846055 0.0030347335 -4.1203828e-05 -0.008662037 0.00071784557 0.0037901613 0.0010712327 0.0023382371 -0.013565672 0.007148781 0.0023324064 -0.012982121 -0.008168558 0.015276492 0.013271251 -0.0030009993 -0.0011147126 0.011984006 -0.009743847 0.003947343 0.006824263 0.009364395 0.015423317 -0.0056633307 -0.005088663 0.0027699359 -0.0067923535 -0.006986016 -0.018839328 0.004082117 0.0015132469 -0.005070752 -0.0022364426
iran 0.004772989 0.0028355832 -0.011414084 -0.0049186875 -0.00287305 -0.014891474 -0.0075501334 0.0014777327 -0.0016960861 -0.0014488458 0.0047068927 0.007952089 0.006771925 -0.009955598 -0.0067055603 0.0103763435 -0.005439574 0.008832164 -0.011912845 0.014667071 -0.013311295 -0.0017054509 0.013134473 -0.013357783 0.0065452843 -0.0038100714 -0.010193214 0.0023985624 0.016832352 -0.0042632464 0.0023644124 0.008142649 0.023844777 0.005153028 -0.0036739486 0.0033621571 -0.005046641 0.018303184 -0.005259395 -0.006264395 -0.00928859 -0.014672962 -0.011285553 -0.004123627 0.007231682 -0.006232851 0.007819846 0.015236262
favorite -0.010501679 -0.0037002773 -0.009017871 -0.004704704 0.010995749 -0.0073587 0.0032829326 0.0054187067 0.004027544 -0.009861456 0.0029016393 -0.0010607138 -0.00015575232 -0.0141754635 -0.010696472 0.00035721864 0.005807002 0.016727354 -0.014283538 -0.0022542726 -0.011206549 0.007268279 0.005637638 -0.014982224 0.012364166 -0.0036786217 -0.0012497145 -0.0071952003 0.005000579 0.0044821575 -0.0056888047 0.013579818 0.00954729 0.006769812 -0.0013935106 -0.002489937 -0.0049488507 -0.003671407 -0.0076291473 -0.009625838 -0.00097192853 -0.0116933845 -0.013903746 0.0012308476 -0.004812077 0.009919365 0.009903182 -0.0014581907
chrysler -0.007037043 -0.009536916 0.0060847923 -0.004825417 -0.0033395744 -0.008375034 0.0017644416 0.0010436525 0.008349231 -0.01160689 0.005565545 -0.0008475922 -0.0046593756 -0.01127928 -0.0060631065 -5.015035e-05 -0.007936987 0.0102672465 -0.014645901 0.010849943 -0.015380167 -0.00545775 0.005183879 -0.014181341 0.004329002 -0.010495195 0.0043937224 0.0019764176 -0.003639237 0.0006750905 -0.0067248335 0.0069350176 0.013427447 0.0032096172 0.0005300317 0.00019291363 -0.008810824 0.004789437 -0.000743425 0.010834662 0.001705556 -0.005738766 -0.008829974 -0.004589342 -0.008655242 0.0073264204 0.001180059 0.01237285
anti -0.0049845586 0.0043703546 0.004905844 0.0091410745 -0.005677556 -0.008494612 0.0065597054 -0.0110345865 -0.0053066695 -0.011304462 0.0024090896 -0.009871893 0.0021249244 -0.014837134 -0.008104084 -0.001325306 0.0050721806 0.0141381 -0.0040853433 0.005209267 -0.0136476755 0.002398568 0.0015139634 -0.0047643776 0.006346657 -0.0026802607 -0.00454576 0.008174585 -0.0018533762 0.0051801344 -0.00034378486 0.011639981 0.021607842 -0.010209024 0.005149755 -0.009380582 -0.0023196724 0.004404752 0.0047276258 -0.0025649024 -0.006264636 -0.009183204 -0.014812688 -0.0037560281 0.005121435 0.0023047675 0.0055118627 -0.0017867617
american -0.003183196 -0.0069060083 -0.01171086 -0.01064774 -0.008809491 -0.010566429 0.0033334198 -0.008097331 0.0006831261 -0.010250203 0.0022341933 -2.1216176e-05 0.0003495164 -0.010926401 -0.0018005314 0.005411863 -0.003042303 0.0020498077 -0.011948122 0.016029416 -0.0024917028 -0.0053373473 -0.0033788306 0.0023365729 -0.003388624 -0.004219852 -0.0142372865 -0.009510296 0.009735884 0.012423613 0.0014264467 0.0021471581 0.014170253 -0.008806924 -0.011383833 -0.0073308893 -0.00041229598 0.011274478 0.004630105 0.0027183513 0.0049032043 -0.010711202 -0.012800612 -0.015684286 -0.0038784854 -0.010071877 0.007007961 0.011931638
actor -0.01402378 0.007559882 -0.0047213696 0.0065992554 -0.0037679407 -0.004441167 0.009887837 -0.0047888686 0.0038643733 -0.005521864 -0.0052583837 -0.010028126 0.017677767 -0.011120577 -0.0094454205 -0.005313086 -0.01101777 0.0046180724 -0.018546682 0.009858759 -0.012886214 -0.003863278 0.0076597314 -0.013220287 0.0099593075 -0.0038916175 -0.0034857949 -0.012154746 0.01352042 0.012003607 0.0006066192 0.0014424373 0.020124609 0.0035353485 -0.005530616 0.007859488 0.0063966704 0.016785549 -0.0030417633 0.0078485375 -0.00758945 -0.00040894529 -0.00039462963 -0.009949715 -0.005717005 0.008204025 0.011123261 0.018898223
online 0.0032525575 -0.005895243 -0.008110263 -0.0022843552 -0.0022125272 -0.008472853 0.0032705017 -0.0054243803 -0.0065844394 0.007244599 0.005441483 -0.0071269153 0.006134223 0.0048244293 -0.0058049234 -0.0016775453 0.0032814776 0.004552616 -0.016979702 0.0023436956 -0.0018653086 0.00043755464 -0.00370971 -0.004511338 0.00221725 -0.005009238 0.003664501 0.0037435216 0.009548804 0.013761287 0.00358099 0.017488712 0.0042941566 0.004319184 0.0047913133 -0.006250408 -0.008771623 0.013463914 -0.003234915 -0.0037000994 -0.004317759 -0.012032462 -0.00075819076 -0.015931828 0.008527922 0.0024501726 0.015607007 0.017336935
aquarium -0.00774934 -0.008958966 -0.0041996217 0.010185258 -0.00028519612 -0.014896618 -2.8158818e-05 -0.0031353622 0.0013681358 -0.009311328 0.009683474 -0.0057699974 0.008264431 0.0022790371 -0.009023536 0.011999487 -0.012233406 0.014397642 -0.012145651 0.010498527 -0.003749894 0.008836502 -0.0010523854 -0.006636372 0.015276284 0.008490942 -0.0017069577 -0.00061661383 0.015369023 0.005992457 -0.0043607615 0.0030767764 0.00265251 0.010632912 -0.004169451 -0.008394585 0.002354169 0.0025565636 -0.00041758842 -0.0119973095 -0.0061235907 -0.0015463439 -0.0039396673 -0.016779514 -0.010973735 0.011462112 -0.0026503527 0.006840098
market 0.006215555 -0.007399172 -0.0056611504 0.0061379233 0.0022082508 -0.0073449705 -0.006163801 -0.0019255283 -0.0047971257 -0.0048172045 0.011795116 -0.00070838886 0.0019068582 -0.011659363 -0.0018827313 0.0044242498 -0.004880437 0.014421941 -0.002133235 0.008537957 -0.00071231497 0.0016556026 0.0058962232 0.0039552613 0.008393586 -0.0026095293 -0.010382024 0.004090777 0.0020711601 0.007782608 0.013563305 0.016406147 0.010846803 0.0006497898 0.006135398 -0.0001522861 0.0053060385 0.007482833 -0.008185388 -0.012606479 0.0016059417 -0.013832078 -1.7341195e-05 -0.018804498 0.0075833276 0.002977415 0.013119375 0.008623715
budget -0.011113015 0.004535402 -0.0043519987 0.0089197615 0.011315465 0.002642473 0.0022140613 -0.0009847194 0.006733626 -0.006414376 0.007514487 0.0102297105 0.01260336 -0.012886724 -0.014920769 -0.0020260555 -0.009205969 0.023251664 -0.010570332 0.015366992 -0.009542602 -0.00669544 -0.0037070618 -0.014726092 0.009942937 -0.009469161 -0.0036445549 0.0003012466 0.010641559 0.0013202169 -0.0039077387 0.017269114 0.01447288 -0.009118728 0.0021578763 0.0061103064 -0.007222328 0.012020286 -0.009740349 -0.006588769 0.0029358459 -0.002682634 -0.016527629 -0.014634247 -0.0076152515 0.0064308806 0.011938568 -0.001137386
student -0.0004920041 -0.0040534805 0.0073380973 -0.0013603171 0.007842534 -0.010364044 -0.0056209974 0.0019901297 0.0011995821 0.0011774783 -0.001784219 0.006397649 0.015410769 -0.014385272 -0.0055705654 0.006417435 -0.0018092974 0.012556483 -0.012307895 0.011049247 -0.015122121 -0.009185067 0.011284644 -0.010183799 0.010469918 -0.008946035 -0.0104940785 0.0019216137 0.011749587 0.013793121 -0.00037438565 0.00082941726 0.011788011 0.0003808122 0.0047114883 0.0062670596 -0.0011928128 0.012034332 0.0021213403 -0.008701784 0.0006368984 -0.008656687 -0.0053022043 -0.014484873 0.0055903047 0.0020651622 0.0062479354 0.017690547
financial -0.0012074647 -0.012649631 -0.0042964267 -0.0005907106 0.012051233 -0.0016434649 0.0072021256 -0.005056804 0.009418925 -0.0053758263 0.009379669 0.0017999015 0.0025261315 -0.011871565 0.0029757705 0.0054423586 -0.0030955642 0.018822366 -0.017297724 0.0150012495 -0.013097156 -0.0030092166 0.015286611 -0.0014243606 0.0023528382 -0.0020628925 -0.010711558 0.0010843873 0.00878586 0.010990263 0.0024463916 -0.0035452275 0.014456774 0.010729033 0.0034726064 0.0071696765 0.0011737022 0.0037753729 0.010170285 0.0033113237 0.0029833715 -0.010610275 0.0024214655 -0.00030959432 0.006705085 -0.0054954356 0.0059840153 0.0011022969
texting -0.0020213202 0.00013399246 0.00047055614 0.006044583 0.005403504 0.003897269 0.00601494 -0.005933625 0.003376726 -0.002450996 -0.0024487781 -0.003680209 0.006390569 -0.016188484 -0.0119017735 0.0014721717 -0.0059750075 0.0110607715 0.003670764 0.01595732 -0.01710884 0.005853238 -0.0043968097 0.004854109 0.007173755 0.0023449012 -0.0030305034 -0.010249413 0.008734517 -0.004243017 0.0007158717 0.013347215 0.002463704 -0.00969213 0.0036088494 0.005998796 0.0011628913 0.0076583847 -0.0017473451 -0.0039204066 -0.010736646 0.0043964665 -0.017995393 -0.00817227 -0.0023419298 -0.0034443121 0.005265033 0.0023069873
